{"learner":{"attributes":{"best_iteration":"380","best_score":"0.6185022527519614"},"feature_names":["height_diff","weight_diff","reach_diff","age_diff","SLpM_diff","Str_Acc_diff","SApM_diff","Str_Def_diff","TD_Avg_diff","TD_Acc_diff","TD_Def_diff","Sub_Avg_diff"],"feature_types":["int","int","float","int","float","float","float","float","float","float","float","float"],"gradient_booster":{"model":{"gbtree_model_param":{"num_parallel_tree":"1","num_trees":"431"},"iteration_indptr":[0,1,2,3,4,5,6,7,8,9,10,11,12,13,14,15,16,17,18,19,20,21,22,23,24,25,26,27,28,29,30,31,32,33,34,35,36,37,38,39,40,41,42,43,44,45,46,47,48,49,50,51,52,53,54,55,56,57,58,59,60,61,62,63,64,65,66,67,68,69,70,71,72,73,74,75,76,77,78,79,80,81,82,83,84,85,86,87,88,89,90,91,92,93,94,95,96,97,98,99,100,101,102,103,104,105,106,107,108,109,110,111,112,113,114,115,116,117,118,119,120,121,122,123,124,125,126,127,128,129,130,131,132,133,134,135,136,137,138,139,140,141,142,143,144,145,146,147,148,149,150,151,152,153,154,155,156,157,158,159,160,161,162,163,164,165,166,167,168,169,170,171,172,173,174,175,176,177,178,179,180,181,182,183,184,185,186,187,188,189,190,191,192,193,194,195,196,197,198,199,200,201,202,203,204,205,206,207,208,209,210,211,212,213,214,215,216,217,218,219,220,221,222,223,224,225,226,227,228,229,230,231,232,233,234,235,236,237,238,239,240,241,242,243,244,245,246,247,248,249,250,251,252,253,254,255,256,257,258,259,260,261,262,263,264,265,266,267,268,269,270,271,272,273,274,275,276,277,278,279,280,281,282,283,284,285,286,287,288,289,290,291,292,293,294,295,296,297,298,299,300,301,302,303,304,305,306,307,308,309,310,311,312,313,314,315,316,317,318,319,320,321,322,323,324,325,326,327,328,329,330,331,332,333,334,335,336,337,338,339,340,341,342,343,344,345,346,347,348,349,350,351,352,353,354,355,356,357,358,359,360,361,362,363,364,365,366,367,368,369,370,371,372,373,374,375,376,377,378,379,380,381,382,383,384,385,386,387,388,389,390,391,392,393,394,395,396,397,398,399,400,401,402,403,404,405,406,407,408,409,410,411,412,413,414,415,416,417,418,419,420,421,422,423,424,425,426,427,428,429,430,431],"tree_info":[0,0,0,0,0,0,0,0,0,0,0,0,0,0,0,0,0,0,0,0,0,0,0,0,0,0,0,0,0,0,0,0,0,0,0,0,0,0,0,0,0,0,0,0,0,0,0,0,0,0,0,0,0,0,0,0,0,0,0,0,0,0,0,0,0,0,0,0,0,0,0,0,0,0,0,0,0,0,0,0,0,0,0,0,0,0,0,0,0,0,0,0,0,0,0,0,0,0,0,0,0,0,0,0,0,0,0,0,0,0,0,0,0,0,0,0,0,0,0,0,0,0,0,0,0,0,0,0,0,0,0,0,0,0,0,0,0,0,0,0,0,0,0,0,0,0,0,0,0,0,0,0,0,0,0,0,0,0,0,0,0,0,0,0,0,0,0,0,0,0,0,0,0,0,0,0,0,0,0,0,0,0,0,0,0,0,0,0,0,0,0,0,0,0,0,0,0,0,0,0,0,0,0,0,0,0,0,0,0,0,0,0,0,0,0,0,0,0,0,0,0,0,0,0,0,0,0,0,0,0,0,0,0,0,0,0,0,0,0,0,0,0,0,0,0,0,0,0,0,0,0,0,0,0,0,0,0,0,0,0,0,0,0,0,0,0,0,0,0,0,0,0,0,0,0,0,0,0,0,0,0,0,0,0,0,0,0,0,0,0,0,0,0,0,0,0,0,0,0,0,0,0,0,0,0,0,0,0,0,0,0,0,0,0,0,0,0,0,0,0,0,0,0,0,0,0,0,0,0,0,0,0,0,0,0,0,0,0,0,0,0,0,0,0,0,0,0,0,0,0,0,0,0,0,0,0,0,0,0,0,0,0,0,0,0,0,0,0,0,0,0,0,0,0,0,0,0,0,0,0,0,0,0,0,0,0,0,0,0,0,0,0,0,0,0,0,0,0,0,0,0,0,0,0,0,0,0,0,0,0,0,0,0,0,0,0,0,0,0,0,0,0,0,0,0,0,0,0,0,0,0],"trees":[{"base_weights":[1.0037641E-2,-3.445513E-1,3.9650655E-1,-7.185762E-1,-1.3366646E-1,7.078552E-1,9.13006E-2,-1.6494845E-1,-8.6600846E-1,-2.966175E-1,2.8318584E-1,5.258103E-1,1.1973684E0,-1.0501193E-1,5.9327215E-1,-3.7575758E-1,9.0909094E-1,-1.3402061E0,-6.820809E-1,1.8552875E-2,-5.695793E-1,1.3903743E-1,9.268293E-1,3.1619048E-1,8.717949E-1,3.8297874E-1,1.3256705E0,6.60066E-2,-5.423729E-1,4.5833334E-1,1.4418604E0,-5.846154E-1,3.5897437E-1,-1.5384616E-1,1.3333334E0,-1.5625E0,-8.5714287E-1,-7.1875E-1,1.2727272E-2,-5.3571427E-1,1.6241299E-1,-6.7419964E-1,6.593407E-2,3.7795275E-1,-3.548387E-1,-0E0,1.1875E0,-3.0088496E-1,4.8076922E-1,1.3333334E-1,9.815498E-1,-1.4285715E-1,9.5652175E-1,1.1724138E0,1.5604396E0,-8.77193E-1,1.6274865E-1,-7.2625697E-1,3.2786883E-2,1.1724138E0,2.735043E-1,2.2222223E-3,1.5789473E-2,-7.956989E-3,-4.8780485E-4,7.6923077E-3,-3.5294117E-3,6.666667E-3,-1E-2,2.2222223E-3,1.5789473E-2,-1.609756E-2,-2.2222223E-3,-4.489796E-3,-1.5199999E-2,-8.895522E-3,-3.8674031E-3,-0E0,-7.142857E-3,-3.7623763E-3,3.233533E-3,-8.284023E-3,-3.959391E-3,-5.882353E-3,4.262295E-3,1.4285714E-2,2.78481E-3,-6.506024E-3,2.2222223E-3,-1E-2,8.571428E-3,1.2982456E-2,1.8181818E-3,-1.3846154E-2,-1.5384615E-3,5.042017E-4,6.4451825E-3,5E-3,-5.882353E-3,2.4390244E-3,1.0940171E-2,2.6086955E-3,-1.1111111E-2,1.2941177E-2,-0E0,3.3333334E-3,1.2727272E-2,1.7058823E-2,9.62963E-3,-1.0188679E-2,5E-3,4.3478262E-4,7.2164945E-3,-1.2631578E-2,-5.6551723E-3,3.4146341E-3,-5E-3,-0E0,1.4166666E-2,8E-4,7.936507E-3],"categories":[],"categories_nodes":[],"categories_segments":[],"categories_sizes":[],"default_left":[0,0,0,0,0,0,0,0,0,0,0,0,0,0,0,0,0,0,0,0,0,0,0,0,0,0,0,0,0,0,0,0,0,0,0,0,0,0,0,0,0,0,0,0,0,0,0,0,0,0,0,0,0,0,0,0,0,0,0,0,0,0,0,0,0,0,0,0,0,0,0,0,0,0,0,0,0,0,0,0,0,0,0,0,0,0,0,0,0,0,0,0,0,0,0,0,0,0,0,0,0,0,0,0,0,0,0,0,0,0,0,0,0,0,0,0,0,0,0,0,0],"id":0,"left_children":[1,3,5,7,9,11,13,15,17,19,21,23,25,27,29,31,33,35,37,39,41,43,45,47,49,51,53,55,57,59,61,63,65,67,69,71,73,75,-1,77,79,81,83,85,87,89,91,93,95,97,99,101,103,105,107,109,111,113,115,117,119,-1,-1,-1,-1,-1,-1,-1,-1,-1,-1,-1,-1,-1,-1,-1,-1,-1,-1,-1,-1,-1,-1,-1,-1,-1,-1,-1,-1,-1,-1,-1,-1,-1,-1,-1,-1,-1,-1,-1,-1,-1,-1,-1,-1,-1,-1,-1,-1,-1,-1,-1,-1,-1,-1,-1,-1,-1,-1,-1,-1],"loss_changes":[1.6396506E2,4.912268E1,5.433745E1,1.820182E1,2.727159E1,2.4611786E1,2.8664497E1,1.1322837E1,1.4545273E1,2.4808563E1,1.0355297E1,1.4827724E1,7.43338E0,1.5705736E1,8.700138E0,6.5398607E0,3.9254084E0,3.8687363E0,1.0215382E1,1.0831559E1,1.0316788E1,1.1166606E1,4.9527435E0,1.3474079E1,6.1910095E0,3.6803222E0,5.1820374E-1,1.3966691E1,6.263813E0,9.182102E0,1.4464836E0,3.6371279E0,3.1191554E0,2.9230769E0,1.2865486E0,1.6690445E0,4.052245E0,6.9145966E0,0E0,2.6785717E0,9.462568E0,5.3681107E0,5.6127667E0,6.2383566E0,5.435462E0,5.5714283E0,1.5459538E0,4.2886314E0,7.2963047E0,3.2705882E0,5.3537903E0,3.0262249E0,1.8567777E0,3.2372017E0,3.3424377E-1,3.2898045E0,9.184413E0,3.1476479E0,2.6787286E0,4.1523E0,5.8245664E0,0E0,0E0,0E0,0E0,0E0,0E0,0E0,0E0,0E0,0E0,0E0,0E0,0E0,0E0,0E0,0E0,0E0,0E0,0E0,0E0,0E0,0E0,0E0,0E0,0E0,0E0,0E0,0E0,0E0,0E0,0E0,0E0,0E0,0E0,0E0,0E0,0E0,0E0,0E0,0E0,0E0,0E0,0E0,0E0,0E0,0E0,0E0,0E0,0E0,0E0,0E0,0E0,0E0,0E0,0E0,0E0,0E0,0E0,0E0,0E0],"parents":[2147483647,0,0,1,1,2,2,3,3,4,4,5,5,6,6,7,7,8,8,9,9,10,10,11,11,12,12,13,13,14,14,15,15,16,16,17,17,18,18,19,19,20,20,21,21,22,22,23,23,24,24,25,25,26,26,27,27,28,28,29,29,30,30,31,31,32,32,33,33,34,34,35,35,36,36,37,37,39,39,40,40,41,41,42,42,43,43,44,44,45,45,46,46,47,47,48,48,49,49,50,50,51,51,52,52,53,53,54,54,55,55,56,56,57,57,58,58,59,59,60,60],"right_children":[2,4,6,8,10,12,14,16,18,20,22,24,26,28,30,32,34,36,38,40,42,44,46,48,50,52,54,56,58,60,62,64,66,68,70,72,74,76,-1,78,80,82,84,86,88,90,92,94,96,98,100,102,104,106,108,110,112,114,116,118,120,-1,-1,-1,-1,-1,-1,-1,-1,-1,-1,-1,-1,-1,-1,-1,-1,-1,-1,-1,-1,-1,-1,-1,-1,-1,-1,-1,-1,-1,-1,-1,-1,-1,-1,-1,-1,-1,-1,-1,-1,-1,-1,-1,-1,-1,-1,-1,-1,-1,-1,-1,-1,-1,-1,-1,-1,-1,-1,-1,-1],"split_conditions":[1E-2,-8E-2,0E0,-3E0,5E-2,1.2E-1,1.6E-1,1.6E-1,-1.17E0,0E0,1.4E-1,1.1E-1,-1.1E0,6E0,1.5E-1,3E0,-7E-2,1E-2,9E0,-9E-2,6E0,4E0,-4E-2,-1.01E0,0E0,5E-2,6E-2,-3.3E-1,7E-2,-2E0,-1.6E-1,3E-1,-5.3E-1,1E0,2.2E-1,1.1E1,2E0,2E-2,1.2727272E-2,-6E0,-1.7E-1,3.2E-1,-4E-2,-8E0,-2E-2,-3.1E-1,9E0,-3.5E0,-6E-2,8E-2,-1.76E0,3E-2,2.2E-1,-9E0,4.4E-1,5E0,9E-2,-3E0,1.5E-1,-2.5E-1,2.1E-1,2.2222223E-3,1.5789473E-2,-7.956989E-3,-4.8780485E-4,7.6923077E-3,-3.5294117E-3,6.666667E-3,-1E-2,2.2222223E-3,1.5789473E-2,-1.609756E-2,-2.2222223E-3,-4.489796E-3,-1.5199999E-2,-8.895522E-3,-3.8674031E-3,-0E0,-7.142857E-3,-3.7623763E-3,3.233533E-3,-8.284023E-3,-3.959391E-3,-5.882353E-3,4.262295E-3,1.4285714E-2,2.78481E-3,-6.506024E-3,2.2222223E-3,-1E-2,8.571428E-3,1.2982456E-2,1.8181818E-3,-1.3846154E-2,-1.5384615E-3,5.042017E-4,6.4451825E-3,5E-3,-5.882353E-3,2.4390244E-3,1.0940171E-2,2.6086955E-3,-1.1111111E-2,1.2941177E-2,-0E0,3.3333334E-3,1.2727272E-2,1.7058823E-2,9.62963E-3,-1.0188679E-2,5E-3,4.3478262E-4,7.2164945E-3,-1.2631578E-2,-5.6551723E-3,3.4146341E-3,-5E-3,-0E0,1.4166666E-2,8E-4,7.936507E-3],"split_indices":[5,5,3,3,7,5,10,9,8,3,7,10,8,3,7,2,7,10,2,7,1,3,5,8,1,7,7,9,7,0,9,8,8,0,9,1,0,7,0,3,10,8,7,3,5,8,3,8,7,5,8,7,5,1,10,3,7,2,9,8,9,0,0,0,0,0,0,0,0,0,0,0,0,0,0,0,0,0,0,0,0,0,0,0,0,0,0,0,0,0,0,0,0,0,0,0,0,0,0,0,0,0,0,0,0,0,0,0,0,0,0,0,0,0,0,0,0,0,0,0,0],"split_type":[0,0,0,0,0,0,0,0,0,0,0,0,0,0,0,0,0,0,0,0,0,0,0,0,0,0,0,0,0,0,0,0,0,0,0,0,0,0,0,0,0,0,0,0,0,0,0,0,0,0,0,0,0,0,0,0,0,0,0,0,0,0,0,0,0,0,0,0,0,0,0,0,0,0,0,0,0,0,0,0,0,0,0,0,0,0,0,0,0,0,0,0,0,0,0,0,0,0,0,0,0,0,0,0,0,0,0,0,0,0,0,0,0,0,0,0,0,0,0,0,0],"sum_hessian":[1.1945E3,6.23E2,5.715E2,2.2375E2,3.9925E2,2.8225E2,2.8925E2,4.75E1,1.7625E2,2.8725E2,1.12E2,2.0725E2,7.5E1,2.085E2,8.075E1,4.025E1,7.25E0,4.75E1,1.2875E2,1.3375E2,1.535E2,9.25E1,1.95E1,1.3025E2,7.7E1,1.075E1,6.425E1,1.505E2,5.8E1,7.1E1,9.75E0,3.15E1,8.75E0,2.25E0,5E0,3.1E1,1.65E1,1.27E2,1.75E0,2.7E1,1.0675E2,1.3175E2,2.175E1,6.25E1,3E1,4.5E0,1.5E1,2.725E1,1.03E2,1.025E1,6.675E1,6E0,4.75E0,4.25E1,2.175E1,1.325E1,1.3725E2,4.375E1,1.425E1,1.35E1,5.75E1,1.25E0,8.5E0,2.225E1,9.25E0,5.5E0,3.25E0,1.25E0,1E0,1.25E0,3.75E0,2.975E1,1.25E0,1.125E1,5.25E0,8.275E1,4.425E1,7E0,2E1,2.425E1,8.25E1,8.35E1,4.825E1,7.5E0,1.425E1,4.25E0,5.825E1,1.975E1,1.025E1,2E0,2.5E0,1.325E1,1.75E0,2.25E0,2.5E1,2.875E1,7.425E1,7E0,3.25E0,9.25E0,5.75E1,4.75E0,1.25E0,3.25E0,1.5E0,5E0,3.75E1,1.6E1,5.75E0,1.225E1,1E0,1.14E2,2.325E1,8.5E0,3.525E1,9.25E0,5E0,2.5E0,1.1E1,4.275E1,1.475E1],"tree_param":{"num_deleted":"0","num_feature":"12","num_nodes":"121","size_leaf_vector":"1"}},{"base_weights":[-4.7231905E-4,-2.9447395E-1,3.9388323E-1,6.605053E-1,-4.2955703E-1,7.6776767E-1,-8.3945364E-2,4.9333102E-1,1.594003E0,-2.9323733E-1,-1.2148997E0,1.155263E0,4.9347943E-1,-1.0373685E0,2.44903E-2,-9.465187E-1,5.839874E-1,1.708007E-2,6.636522E-3,-6.148189E-1,-8.195986E-2,-1.3626777E0,-5.7138926E-1,1.2484006E0,3.069701E-1,2.3022663E-2,6.5571684E-1,-1.3382901E0,-3.9434978E-1,2.7258807E-1,-3.1792432E-1,-1.4264769E-2,2.207714E-3,3.7329158E-1,1.2579317E0,-1.0814549E0,-4.2555696E-1,-6.256945E-1,9.750907E-2,-9.4260347E-1,-1.540288E0,-9.7132456E-1,1.6329876E-3,3.774574E-1,1.3302298E0,-4.2098898E-1,1.2980566E0,-2.3879938E-1,5.9557647E-1,3.68017E-1,8.512794E-1,-1.4554243E0,-4.579631E-3,5.2943224E-1,-1.1930798E0,4.9607342E-1,-1.1581922E-1,-5.420926E-1,2.989515E-1,4.2150184E-3,-8.02897E-3,1.3292736E-2,2.2323576E-3,-1.151097E-2,2.3054072E-5,-5.4265964E-3,2.7914944E-3,-2.9498565E-3,-8.4394775E-3,5.6522954E-3,-1.090551E-3,-1.0618439E-2,6.6873645E-3,-6.676653E-3,-1.5933216E-2,-1.3092566E-2,3.3809226E-3,6.01239E-3,-6.6495757E-3,-6.6595334E-3,8.336349E-3,1.1239774E-2,1.6214458E-2,2.8844667E-3,-1.2468747E-2,1.5497953E-2,2.176573E-3,-4.763573E-3,3.7770097E-3,-1.3202761E-3,7.8104935E-3,2.2570202E-3,9.725139E-3,1.0889558E-2,4.1377307E-3,-5.859602E-3,-1.6851474E-2,-1.7779927E-3,1.0012452E-2,-1.4604977E-2,-2.171155E-3,2.8611452E-3,9.755935E-3,-6.478885E-3,2.3500924E-3,-7.24156E-3,4.998074E-3,-1.1954295E-2,5.546125E-3],"categories":[],"categories_nodes":[],"categories_segments":[],"categories_sizes":[],"default_left":[0,0,0,0,0,0,0,0,0,0,0,0,0,0,0,0,0,0,0,0,0,0,0,0,0,0,0,0,0,0,0,0,0,0,0,0,0,0,0,0,0,0,0,0,0,0,0,0,0,0,0,0,0,0,0,0,0,0,0,0,0,0,0,0,0,0,0,0,0,0,0,0,0,0,0,0,0,0,0,0,0,0,0,0,0,0,0,0,0,0,0,0,0,0,0,0,0,0,0,0,0,0,0,0,0,0,0,0,0],"id":1,"left_children":[1,3,5,7,9,11,13,15,17,19,21,23,25,27,29,31,33,-1,-1,35,37,39,41,43,45,47,49,51,53,55,57,-1,-1,59,61,63,65,67,69,71,73,75,77,79,81,83,85,87,89,91,93,95,-1,97,99,101,103,105,107,-1,-1,-1,-1,-1,-1,-1,-1,-1,-1,-1,-1,-1,-1,-1,-1,-1,-1,-1,-1,-1,-1,-1,-1,-1,-1,-1,-1,-1,-1,-1,-1,-1,-1,-1,-1,-1,-1,-1,-1,-1,-1,-1,-1,-1,-1,-1,-1,-1,-1],"loss_changes":[1.3857681E2,8.861636E1,9.126526E1,1.2517281E1,6.3931053E1,2.9880173E1,2.328674E1,1.017934E1,1.9224358E-1,3.480392E1,7.637314E0,8.939514E0,1.2921932E1,3.9226017E0,1.7331772E1,2.9760823E0,9.470114E0,0E0,0E0,1.7489838E1,3.0384752E1,3.8639374E0,4.1839113E0,7.0522156E0,9.925443E0,6.8130217E0,6.775795E0,9.059582E-1,7.087747E0,1.0321829E1,1.2019773E1,0E0,0E0,3.4429483E0,9.027729E-1,4.38015E0,1.2220324E1,5.326763E0,2.2717453E1,5.2732735E0,1.1806564E0,5.1993876E0,3.7971358E0,5.5528727E0,3.9735718E0,5.193389E0,1.2265186E0,4.7565737E0,2.0261536E0,4.3184814E0,7.270176E0,1.6090794E0,0E0,1.7629877E0,9.878273E-1,7.296919E0,8.365408E0,1.2359804E1,9.641182E0,0E0,0E0,0E0,0E0,0E0,0E0,0E0,0E0,0E0,0E0,0E0,0E0,0E0,0E0,0E0,0E0,0E0,0E0,0E0,0E0,0E0,0E0,0E0,0E0,0E0,0E0,0E0,0E0,0E0,0E0,0E0,0E0,0E0,0E0,0E0,0E0,0E0,0E0,0E0,0E0,0E0,0E0,0E0,0E0,0E0,0E0,0E0,0E0,0E0,0E0],"parents":[2147483647,0,0,1,1,2,2,3,3,4,4,5,5,6,6,7,7,8,8,9,9,10,10,11,11,12,12,13,13,14,14,15,15,16,16,19,19,20,20,21,21,22,22,23,23,24,24,25,25,26,26,27,27,28,28,29,29,30,30,33,33,34,34,35,35,36,36,37,37,38,38,39,39,40,40,41,41,42,42,43,43,44,44,45,45,46,46,47,47,48,48,49,49,50,50,51,51,53,53,54,54,55,55,56,56,57,57,58,58],"right_children":[2,4,6,8,10,12,14,16,18,20,22,24,26,28,30,32,34,-1,-1,36,38,40,42,44,46,48,50,52,54,56,58,-1,-1,60,62,64,66,68,70,72,74,76,78,80,82,84,86,88,90,92,94,96,-1,98,100,102,104,106,108,-1,-1,-1,-1,-1,-1,-1,-1,-1,-1,-1,-1,-1,-1,-1,-1,-1,-1,-1,-1,-1,-1,-1,-1,-1,-1,-1,-1,-1,-1,-1,-1,-1,-1,-1,-1,-1,-1,-1,-1,-1,-1,-1,-1,-1,-1,-1,-1,-1,-1],"split_conditions":[2.7E-1,-2.01E0,6.7E-1,2.4E-1,1.28E0,-6.2E-1,-2.95E0,-5E0,-2.16E0,-8E-2,-8E-2,6E0,-1E-1,2E0,1E0,-1.59E0,2.12E0,1.708007E-2,6.636522E-3,-1.9E-1,-1.79E0,1.59E0,-3E-2,-1.66E0,1.2E-1,1.1E-1,1E0,4.14E0,1.84E0,1.81E0,1.92E0,-1.4264769E-2,2.207714E-3,2.2E-1,6E0,8E-2,6E0,1E0,-2E0,5E0,-5E0,2E0,0E0,3E-2,1.29E0,-1E-2,3E0,1.75E0,-2E0,1.24E0,1E0,1.19E0,-4.579631E-3,-3.86E0,3.49E0,1.41E0,5E-2,8.9E-1,-1.3E-1,4.2150184E-3,-8.02897E-3,1.3292736E-2,2.2323576E-3,-1.151097E-2,2.3054072E-5,-5.4265964E-3,2.7914944E-3,-2.9498565E-3,-8.4394775E-3,5.6522954E-3,-1.090551E-3,-1.0618439E-2,6.6873645E-3,-6.676653E-3,-1.5933216E-2,-1.3092566E-2,3.3809226E-3,6.01239E-3,-6.6495757E-3,-6.6595334E-3,8.336349E-3,1.1239774E-2,1.6214458E-2,2.8844667E-3,-1.2468747E-2,1.5497953E-2,2.176573E-3,-4.763573E-3,3.7770097E-3,-1.3202761E-3,7.8104935E-3,2.2570202E-3,9.725139E-3,1.0889558E-2,4.1377307E-3,-5.859602E-3,-1.6851474E-2,-1.7779927E-3,1.0012452E-2,-1.4604977E-2,-2.171155E-3,2.8611452E-3,9.755935E-3,-6.478885E-3,2.3500924E-3,-7.24156E-3,4.998074E-3,-1.1954295E-2,5.546125E-3],"split_indices":[4,6,6,10,6,6,8,2,6,8,4,3,10,2,3,4,8,0,0,10,4,6,7,8,10,8,4,6,6,6,4,0,0,10,3,4,1,3,3,2,3,2,2,7,4,10,2,4,2,8,3,6,0,8,6,6,10,8,10,0,0,0,0,0,0,0,0,0,0,0,0,0,0,0,0,0,0,0,0,0,0,0,0,0,0,0,0,0,0,0,0,0,0,0,0,0,0,0,0,0,0,0,0,0,0,0,0,0,0],"split_type":[0,0,0,0,0,0,0,0,0,0,0,0,0,0,0,0,0,0,0,0,0,0,0,0,0,0,0,0,0,0,0,0,0,0,0,0,0,0,0,0,0,0,0,0,0,0,0,0,0,0,0,0,0,0,0,0,0,0,0,0,0,0,0,0,0,0,0,0,0,0,0,0,0,0,0,0,0,0,0,0,0,0,0,0,0,0,0,0,0,0,0,0,0,0,0,0,0,0,0,0,0,0,0,0,0,0,0,0,0],"sum_hessian":[1.1932334E3,6.837411E2,5.094923E2,8.424879E1,5.994923E2,2.8549527E2,2.2399702E2,7.2749084E1,1.1499702E1,5.1199387E2,8.749844E1,1.1699751E2,1.6849776E2,2.1999474E1,2.0199756E2,3.749941E0,6.8999146E1,9.499742E0,1.9999609E0,2.0224716E2,3.097467E2,7.024871E1,1.7249733E1,1.0499771E2,1.1999804E1,4.3499523E1,1.2499823E2,1.4249632E1,7.749841E0,1.1724859E2,8.474897E1,2.4999766E0,1.2499645E0,5.3749332E1,1.5249814E1,5.6998947E1,1.4524821E2,7.624918E1,2.3349751E2,2.2749636E1,4.7499073E1,9.749838E0,7.4998946E0,9.499823E0,9.549789E1,7.249919E0,4.7498846E0,3.0249643E1,1.324988E1,5.1749435E1,7.3248795E1,1.1999702E1,2.2499292E0,3.749947E0,3.9998941E0,7.42492E1,4.2999386E1,6.2249256E1,2.249971E1,5.2249344E1,1.4999868E0,1.399983E1,1.2499834E0,5.3498985E1,3.499963E0,1.2474844E2,2.0499779E1,3.1249643E1,4.499954E1,7.099903E1,1.6249849E2,2.1499662E1,1.2499733E0,3.4999526E0,4.3999123E1,7.749883E0,1.9999549E0,3.9999402E0,3.4999545E0,2.7499745E0,6.7498484E0,5.874887E1,3.674902E1,4.249953E0,2.9999661E0,3.49992E0,1.2499648E0,2.1999737E1,8.249905E0,2.7499754E0,1.0499904E1,4.2999546E1,8.749888E0,4.6499058E1,2.6749739E1,3.2499404E0,8.749763E0,1.7499655E0,1.9999814E0,2.7499352E0,1.249959E0,5.2749424E1,2.1499779E1,1.6749784E1,2.62496E1,5.3249344E1,8.999913E0,2.7499514E0,1.974976E1],"tree_param":{"num_deleted":"0","num_feature":"12","num_nodes":"109","size_leaf_vector":"1"}},{"base_weights":[2.3998624E-2,-3.3133748E-1,4.1467303E-1,-5.60064E-1,7.3267394E-3,1.0248148E0,2.652953E-1,-2.866965E-1,-9.381021E-1,2.4458608E-1,-6.999596E-1,7.493641E-1,1.4350712E0,-1.0081088E-1,5.3740996E-1,3.651373E-1,-4.2085066E-1,9.667471E-4,-1.048201E0,-2.3032333E-1,4.1402578E-1,-1.008876E0,-2.5046146E-1,-5.2692957E-2,8.816799E-1,8.7160623E-1,1.6309973E0,-2.6578608E-1,3.9782116E-1,-3.5384026E-1,6.713788E-1,-4.6847883E-1,5.854851E-1,-8.429743E-1,-1.365817E-1,-5.4415107E-1,8.003409E-1,-8.58297E-1,-1.4893318E0,2.8456932E-1,-5.259437E-1,2.921457E-1,1.0716429E0,-1.2011926E0,7.5259004E-3,-9.924905E-1,2.7797967E-3,4.52243E-1,-6.677916E-1,9.9397534E-1,6.36254E-2,1.2342548E0,2.9116637E-1,3.28882E-3,1.7081339E-2,-5.782329E-1,1.4631851E-2,-3.99454E-1,5.8486056E-1,-7.5374806E-1,3.2628617E-1,1.1153114E0,4.457947E-1,-1.3307189E-2,1.5485697E-5,2.678115E-3,9.925268E-3,-1.0692746E-2,-5.5028317E-3,-8.182182E-3,4.2614224E-4,6.67272E-3,-7.6790145E-3,1.0012597E-2,-1.9966967E-5,-9.891353E-3,-2.8400501E-4,-1.5408744E-2,-3.2286698E-3,-1.2836026E-3,8.219005E-3,3.0789487E-3,-7.0554507E-3,-1.0675616E-3,5.731602E-3,-2.277929E-3,1.1619897E-2,-1.3532004E-2,-3.2329874E-3,8.6505115E-3,-6.6110967E-3,-1.4952947E-2,-2.4154575E-3,-7.7490634E-3,2.6957365E-3,-4.651636E-3,1.0473983E-2,-1.002073E-2,2.2329837E-3,-6.7086965E-3,1.04793655E-2,1.0792342E-2,-4.9709682E-3,3.880198E-3,1.3698333E-2,-2.3640797E-3,9.854763E-3,1.7816324E-3,-7.4831317E-3,-2.002521E-3,4.519549E-3,8.210384E-3,-1.1087326E-2,-9.084082E-3,6.757424E-3,4.42325E-3,-9.973609E-3,8.688306E-3,-7.969404E-3,1.1718118E-2,-6.6890786E-3,2.067397E-3,7.488467E-3],"categories":[],"categories_nodes":[],"categories_segments":[],"categories_sizes":[],"default_left":[0,0,0,0,0,0,0,0,0,0,0,0,0,0,0,0,0,0,0,0,0,0,0,0,0,0,0,0,0,0,0,0,0,0,0,0,0,0,0,0,0,0,0,0,0,0,0,0,0,0,0,0,0,0,0,0,0,0,0,0,0,0,0,0,0,0,0,0,0,0,0,0,0,0,0,0,0,0,0,0,0,0,0,0,0,0,0,0,0,0,0,0,0,0,0,0,0,0,0,0,0,0,0,0,0,0,0,0,0,0,0,0,0,0,0,0,0,0,0,0,0,0,0],"id":2,"left_children":[1,3,5,7,9,11,13,15,17,19,21,23,25,27,29,31,33,35,37,39,41,43,45,47,49,51,53,55,57,59,61,63,65,67,69,71,73,75,77,79,81,83,85,87,89,91,93,95,97,99,101,103,105,-1,-1,107,109,111,113,115,117,119,121,-1,-1,-1,-1,-1,-1,-1,-1,-1,-1,-1,-1,-1,-1,-1,-1,-1,-1,-1,-1,-1,-1,-1,-1,-1,-1,-1,-1,-1,-1,-1,-1,-1,-1,-1,-1,-1,-1,-1,-1,-1,-1,-1,-1,-1,-1,-1,-1,-1,-1,-1,-1,-1,-1,-1,-1,-1,-1,-1,-1],"loss_changes":[1.6685371E2,4.8764076E1,5.1904274E1,3.8560562E1,4.291927E1,1.160849E1,4.6003437E1,1.934758E1,1.6258057E1,1.5504564E1,8.668472E0,7.3952255E0,3.435341E0,1.635205E1,3.1847092E1,7.2541776E0,2.1783615E1,8.061034E0,1.051181E1,7.912243E0,1.102784E1,7.387623E0,5.1702003E0,3.6406555E0,5.4023666E0,2.4820309E0,2.6017303E0,1.3062891E1,7.6149335E0,9.833221E0,2.2584824E1,3.4468412E0,3.677946E0,4.26318E0,1.3501264E1,3.4939587E0,1.2110138E0,1.0911087E1,1.967186E0,4.3765984E0,5.1216164E0,1.3596517E1,2.8180294E0,3.799179E0,4.585343E0,2.2817993E0,4.669629E0,4.0360107E0,1.7875748E0,5.396755E0,5.234536E0,3.8624E-1,2.613708E0,0E0,0E0,9.2027855E0,7.561251E0,9.566904E0,6.1099615E0,6.996976E0,9.071439E0,8.545532E0,1.1037697E1,0E0,0E0,0E0,0E0,0E0,0E0,0E0,0E0,0E0,0E0,0E0,0E0,0E0,0E0,0E0,0E0,0E0,0E0,0E0,0E0,0E0,0E0,0E0,0E0,0E0,0E0,0E0,0E0,0E0,0E0,0E0,0E0,0E0,0E0,0E0,0E0,0E0,0E0,0E0,0E0,0E0,0E0,0E0,0E0,0E0,0E0,0E0,0E0,0E0,0E0,0E0,0E0,0E0,0E0,0E0,0E0,0E0,0E0,0E0,0E0],"parents":[2147483647,0,0,1,1,2,2,3,3,4,4,5,5,6,6,7,7,8,8,9,9,10,10,11,11,12,12,13,13,14,14,15,15,16,16,17,17,18,18,19,19,20,20,21,21,22,22,23,23,24,24,25,25,26,26,27,27,28,28,29,29,30,30,31,31,32,32,33,33,34,34,35,35,36,36,37,37,38,38,39,39,40,40,41,41,42,42,43,43,44,44,45,45,46,46,47,47,48,48,49,49,50,50,51,51,52,52,55,55,56,56,57,57,58,58,59,59,60,60,61,61,62,62],"right_children":[2,4,6,8,10,12,14,16,18,20,22,24,26,28,30,32,34,36,38,40,42,44,46,48,50,52,54,56,58,60,62,64,66,68,70,72,74,76,78,80,82,84,86,88,90,92,94,96,98,100,102,104,106,-1,-1,108,110,112,114,116,118,120,122,-1,-1,-1,-1,-1,-1,-1,-1,-1,-1,-1,-1,-1,-1,-1,-1,-1,-1,-1,-1,-1,-1,-1,-1,-1,-1,-1,-1,-1,-1,-1,-1,-1,-1,-1,-1,-1,-1,-1,-1,-1,-1,-1,-1,-1,-1,-1,-1,-1,-1,-1,-1,-1,-1,-1,-1,-1,-1,-1,-1],"split_conditions":[1E-2,-4E-2,-1.58E0,1.3E-1,1.72E0,1E-1,3.2E-1,-2.01E0,-5E0,-1E-1,1.1E-1,-3E-1,-1E-1,1.4E-1,-1.94E0,-1E-1,-9E-2,2E-1,1.59E0,-2E0,1.8E0,5E-1,-1E-1,-2.16E0,6E0,1E0,-1.76E0,2E-1,-5.5E-1,2.02E0,-1.3E-1,-3.19E0,5E-2,-1.27E0,-2.12E0,-8E-1,-3.3E-1,1.17E0,-9E-2,6.1E-1,-4.9E-1,-3.7E-1,-1.9E0,6E0,2.07E0,-7E-2,-2.18E0,-4.2E-1,1E0,-1.1E-1,-1E0,-2.76E0,1.3E-1,3.28882E-3,1.7081339E-2,-3E0,9.3E-1,-1E0,-1.5E-1,-5E0,1.57E0,9E0,1E-1,-1.3307189E-2,1.5485697E-5,2.678115E-3,9.925268E-3,-1.0692746E-2,-5.5028317E-3,-8.182182E-3,4.2614224E-4,6.67272E-3,-7.6790145E-3,1.0012597E-2,-1.9966967E-5,-9.891353E-3,-2.8400501E-4,-1.5408744E-2,-3.2286698E-3,-1.2836026E-3,8.219005E-3,3.0789487E-3,-7.0554507E-3,-1.0675616E-3,5.731602E-3,-2.277929E-3,1.1619897E-2,-1.3532004E-2,-3.2329874E-3,8.6505115E-3,-6.6110967E-3,-1.4952947E-2,-2.4154575E-3,-7.7490634E-3,2.6957365E-3,-4.651636E-3,1.0473983E-2,-1.002073E-2,2.2329837E-3,-6.7086965E-3,1.04793655E-2,1.0792342E-2,-4.9709682E-3,3.880198E-3,1.3698333E-2,-2.3640797E-3,9.854763E-3,1.7816324E-3,-7.4831317E-3,-2.002521E-3,4.519549E-3,8.210384E-3,-1.1087326E-2,-9.084082E-3,6.757424E-3,4.42325E-3,-9.973609E-3,8.688306E-3,-7.969404E-3,1.1718118E-2,-6.6890786E-3,2.067397E-3,7.488467E-3],"split_indices":[5,4,6,6,6,4,4,6,3,10,10,11,11,10,8,5,10,11,6,3,4,11,7,6,3,0,8,11,8,4,6,6,7,4,4,11,4,8,4,6,6,8,11,3,6,5,8,8,0,7,0,6,7,0,0,3,8,3,7,3,6,3,10,0,0,0,0,0,0,0,0,0,0,0,0,0,0,0,0,0,0,0,0,0,0,0,0,0,0,0,0,0,0,0,0,0,0,0,0,0,0,0,0,0,0,0,0,0,0,0,0,0,0,0,0,0,0,0,0,0,0,0,0],"split_type":[0,0,0,0,0,0,0,0,0,0,0,0,0,0,0,0,0,0,0,0,0,0,0,0,0,0,0,0,0,0,0,0,0,0,0,0,0,0,0,0,0,0,0,0,0,0,0,0,0,0,0,0,0,0,0,0,0,0,0,0,0,0,0,0,0,0,0,0,0,0,0,0,0,0,0,0,0,0,0,0,0,0,0,0,0,0,0,0,0,0,0,0,0,0,0,0,0,0,0,0,0,0,0,0,0,0,0,0,0,0,0,0,0,0,0,0,0,0,0,0,0,0,0],"sum_hessian":[1.199947E3,6.2847363E2,5.714734E2,3.7473312E2,2.537405E2,1.1124132E2,4.6023206E2,2.1849385E2,1.5623927E2,1.9049358E2,6.3246918E1,6.8246445E1,4.2994873E1,1.9649498E2,2.6373706E2,3.6999138E1,1.814947E2,1.649965E1,1.3973962E2,4.9998196E1,1.4049538E2,3.6747704E1,2.6499214E1,9.749543E0,5.8496902E1,1.24986315E1,3.049624E1,1.4799649E2,4.8498493E1,3.424894E1,2.2948811E2,7.499828E0,2.949931E1,7.22468E1,1.0924791E2,9.999774E0,6.499875E0,9.974549E1,3.9994125E1,1.8249596E1,3.17486E1,1.1974632E2,2.0749052E1,3.0747972E1,5.99973E0,5.999823E0,2.0499392E1,5.4996395E0,4.2499037E0,5.12471E1,7.2498035E0,6.999225E0,5.4994063E0,1.9999222E0,2.8496319E1,6.949823E1,7.849826E1,8.999883E0,3.949861E1,2.1499308E1,1.2749634E1,7.599383E1,1.534943E2,1.9999237E0,5.499904E0,1.7499702E1,1.1999607E1,3.9248074E1,3.2998726E1,2.1999353E1,8.724856E1,1.2499754E0,8.749799E0,4.999891E0,1.4999843E0,8.5995834E1,1.3749657E1,3.799429E1,1.9998343E0,1.0749731E1,7.499865E0,5.499881E0,2.624872E1,4.974835E1,6.999798E1,1.2499545E0,1.9499098E1,2.5748234E1,4.9997396E0,2.499879E0,3.4998512E0,2.9999504E0,2.9998727E0,4.749731E0,1.574966E1,2.249912E0,3.2497275E0,2.999959E0,1.2499449E0,1.249964E0,4.9997135E1,2.249917E0,4.9998865E0,1.4998194E0,5.4994054E0,3.4996722E0,1.9997343E0,1.2749593E1,5.674864E1,5.299877E1,2.5499487E1,3.249953E0,5.7499294E0,1.7499487E0,3.7748665E1,3.4999259E0,1.7999382E1,8.749776E0,3.9998581E0,7.399391E1,1.9999125E0,8.674773E1,6.674657E1],"tree_param":{"num_deleted":"0","num_feature":"12","num_nodes":"123","size_leaf_vector":"1"}},{"base_weights":[1.3192763E-2,-3.5236824E-1,4.042644E-1,-7.343988E-1,-1.4845638E-1,2.6669377E-1,9.3207276E-1,-1.0625026E0,-4.7503328E-1,-3.9762238E-1,1.0296209E-1,1.16696E-1,6.2231797E-1,2.0505217E-1,1.0580646E0,-1.2978648E0,-5.6999904E-1,-7.035952E-1,2.2592495E-1,-4.3784386E-1,7.6120895E-1,-1.1634986E-1,4.0981537E-1,-1.3363223E-1,3.4208018E-1,-9.6122876E-2,7.0943815E-1,-5.6158006E-1,9.1432256E-1,4.603905E-1,1.1867608E0,-1.6386958E0,-1.0137143E0,9.112871E-3,-6.839448E-1,-7.7339387E-1,-8.153835E-2,-1.0485754E0,4.1297463E-1,-7.2244126E-1,-2.2151355E-1,1.1329478E0,-3.9826203E-3,2.7872235E-2,-5.085186E-1,-2.898766E-1,5.2010304E-1,-8.6199164E-1,-4.5691907E-2,-4.682192E-1,4.8720798E-1,-4.3051985E-1,9.937931E-1,4.9442396E-1,9.528097E-1,-9.2996687E-1,4.6130717E-3,1.1299993E0,3.4395036E-1,1.0239114E0,-1.4065331E-2,9.628782E-1,1.5442687E0,-2.0839386E-3,-1.699444E-2,-1.0717052E-2,5.5018023E-5,-7.558698E-3,1.5718559E-3,-1.030315E-2,-4.425202E-3,-7.1302257E-3,5.1088445E-3,-2.175893E-3,-1.3222857E-2,-2.8412077E-3,6.9731083E-3,-1.0055153E-2,-3.1487448E-3,-4.1423175E-3,1.9334741E-3,1.3373691E-2,2.2054107E-3,-7.997275E-4,5.9542134E-3,-6.304665E-3,1.1947894E-2,7.975759E-3,-5.158138E-3,2.5505727E-4,6.8749404E-3,-1.2202336E-2,-4.9814805E-3,-5.114937E-3,8.9786743E-4,-1.2307775E-2,-2.1292942E-3,2.7307149E-3,8.111078E-3,-8.195922E-3,2.8140899E-3,2.2145985E-3,1.2643325E-2,2.3234396E-3,7.801591E-3,1.01565765E-2,-8.108922E-3,6.7049395E-3,-1.357321E-2,1.7491326E-3,1.4150378E-2,-1.9296927E-3,7.969528E-3,-3.4415142E-3,1.2479421E-2,1.0243694E-2,-5.5548525E-3,1.6251616E-2,-1.1762536E-4],"categories":[],"categories_nodes":[],"categories_segments":[],"categories_sizes":[],"default_left":[0,0,0,0,0,0,0,0,0,0,0,0,0,0,0,0,0,0,0,0,0,0,0,0,0,0,0,0,0,0,0,0,0,0,0,0,0,0,0,0,0,0,0,0,0,0,0,0,0,0,0,0,0,0,0,0,0,0,0,0,0,0,0,0,0,0,0,0,0,0,0,0,0,0,0,0,0,0,0,0,0,0,0,0,0,0,0,0,0,0,0,0,0,0,0,0,0,0,0,0,0,0,0,0,0,0,0,0,0,0,0,0,0,0,0,0,0,0,0],"id":3,"left_children":[1,3,5,7,9,11,13,15,17,19,21,23,25,27,29,31,33,35,37,39,41,43,45,47,49,51,53,55,57,59,61,63,65,-1,67,69,71,73,75,77,79,81,-1,83,85,87,89,91,93,95,97,99,101,103,105,107,-1,109,111,113,-1,115,117,-1,-1,-1,-1,-1,-1,-1,-1,-1,-1,-1,-1,-1,-1,-1,-1,-1,-1,-1,-1,-1,-1,-1,-1,-1,-1,-1,-1,-1,-1,-1,-1,-1,-1,-1,-1,-1,-1,-1,-1,-1,-1,-1,-1,-1,-1,-1,-1,-1,-1,-1,-1,-1,-1,-1,-1],"loss_changes":[1.7264314E2,4.851584E1,4.211554E1,1.7959106E1,2.5613981E1,2.4689735E1,1.07958145E1,1.0270279E1,1.9862974E1,9.899288E0,1.3775304E1,1.853621E1,8.673294E0,1.0843839E1,7.3170013E0,4.487274E0,6.1082506E0,3.9743767E0,7.8229113E0,1.20909195E1,3.5759568E0,6.786685E0,6.728924E0,9.952208E0,2.0541569E1,6.1678586E0,5.9513206E0,4.1027927E0,8.721142E-1,2.2214643E1,5.195053E0,2.0128784E0,2.207203E0,0E0,1.9789295E0,6.6413574E0,4.2920427E0,6.788893E-1,5.6981792E0,9.546684E0,9.234029E0,7.774644E-1,0E0,5.464105E0,7.451558E0,3.4209824E0,6.1086864E0,1.5752821E0,8.896094E0,4.9451566E0,9.973511E0,3.7621045E0,5.5575013E-1,4.854143E0,7.0853996E0,6.0395093E0,0E0,1.6579351E0,1.1874168E0,5.255726E0,0E0,5.610016E0,3.85717E0,0E0,0E0,0E0,0E0,0E0,0E0,0E0,0E0,0E0,0E0,0E0,0E0,0E0,0E0,0E0,0E0,0E0,0E0,0E0,0E0,0E0,0E0,0E0,0E0,0E0,0E0,0E0,0E0,0E0,0E0,0E0,0E0,0E0,0E0,0E0,0E0,0E0,0E0,0E0,0E0,0E0,0E0,0E0,0E0,0E0,0E0,0E0,0E0,0E0,0E0,0E0,0E0,0E0,0E0,0E0,0E0],"parents":[2147483647,0,0,1,1,2,2,3,3,4,4,5,5,6,6,7,7,8,8,9,9,10,10,11,11,12,12,13,13,14,14,15,15,16,16,17,17,18,18,19,19,20,20,21,21,22,22,23,23,24,24,25,25,26,26,27,27,28,28,29,29,30,30,31,31,32,32,34,34,35,35,36,36,37,37,38,38,39,39,40,40,41,41,43,43,44,44,45,45,46,46,47,47,48,48,49,49,50,50,51,51,52,52,53,53,54,54,55,55,57,57,58,58,59,59,61,61,62,62],"right_children":[2,4,6,8,10,12,14,16,18,20,22,24,26,28,30,32,34,36,38,40,42,44,46,48,50,52,54,56,58,60,62,64,66,-1,68,70,72,74,76,78,80,82,-1,84,86,88,90,92,94,96,98,100,102,104,106,108,-1,110,112,114,-1,116,118,-1,-1,-1,-1,-1,-1,-1,-1,-1,-1,-1,-1,-1,-1,-1,-1,-1,-1,-1,-1,-1,-1,-1,-1,-1,-1,-1,-1,-1,-1,-1,-1,-1,-1,-1,-1,-1,-1,-1,-1,-1,-1,-1,-1,-1,-1,-1,-1,-1,-1,-1,-1,-1,-1,-1,-1],"split_conditions":[1E-2,-8E-2,1.3E-1,-5E-1,-2.5E-1,1.4E-1,-1.1E0,-7E-2,-7E-2,4.5E-1,-1.1E-1,-6E-2,-1.89E0,1.49E0,-2E-1,-2.1E-1,-1.4E1,1E0,-2.1E-1,8E-2,6E-1,-1E-2,-1E0,-4E0,-1.57E0,3E0,-0E0,2E0,2E0,1.75E0,1.6E-1,-4E0,4.8E-1,9.112871E-3,2.12E0,-1.36E0,-7E-2,-4.1E-1,-5E-1,1E-1,1E0,1.22E0,-3.9826203E-3,2.9E-1,3.3E-1,1E-1,-9E-2,4E-2,-5.8E-1,-8E-2,3.6E-1,2.4E0,1.66E0,9E-1,6E0,-3.4E-1,4.6130717E-3,-1E0,3E0,-4E0,-1.4065331E-2,1.3E-1,2.2E1,-2.0839386E-3,-1.699444E-2,-1.0717052E-2,5.5018023E-5,-7.558698E-3,1.5718559E-3,-1.030315E-2,-4.425202E-3,-7.1302257E-3,5.1088445E-3,-2.175893E-3,-1.3222857E-2,-2.8412077E-3,6.9731083E-3,-1.0055153E-2,-3.1487448E-3,-4.1423175E-3,1.9334741E-3,1.3373691E-2,2.2054107E-3,-7.997275E-4,5.9542134E-3,-6.304665E-3,1.1947894E-2,7.975759E-3,-5.158138E-3,2.5505727E-4,6.8749404E-3,-1.2202336E-2,-4.9814805E-3,-5.114937E-3,8.9786743E-4,-1.2307775E-2,-2.1292942E-3,2.7307149E-3,8.111078E-3,-8.195922E-3,2.8140899E-3,2.2145985E-3,1.2643325E-2,2.3234396E-3,7.801591E-3,1.01565765E-2,-8.108922E-3,6.7049395E-3,-1.357321E-2,1.7491326E-3,1.4150378E-2,-1.9296927E-3,7.969528E-3,-3.4415142E-3,1.2479421E-2,1.0243694E-2,-5.5548525E-3,1.6251616E-2,-1.1762536E-4],"split_indices":[5,5,5,8,4,10,8,9,4,10,8,8,8,4,11,10,1,11,10,8,11,5,1,2,4,2,11,2,0,8,10,0,10,0,4,4,9,10,11,11,0,8,0,10,9,4,10,5,4,9,4,4,4,4,0,9,0,0,2,1,0,10,1,0,0,0,0,0,0,0,0,0,0,0,0,0,0,0,0,0,0,0,0,0,0,0,0,0,0,0,0,0,0,0,0,0,0,0,0,0,0,0,0,0,0,0,0,0,0,0,0,0,0,0,0,0,0,0,0],"split_type":[0,0,0,0,0,0,0,0,0,0,0,0,0,0,0,0,0,0,0,0,0,0,0,0,0,0,0,0,0,0,0,0,0,0,0,0,0,0,0,0,0,0,0,0,0,0,0,0,0,0,0,0,0,0,0,0,0,0,0,0,0,0,0,0,0,0,0,0,0,0,0,0,0,0,0,0,0,0,0,0,0,0,0,0,0,0,0,0,0,0,0,0,0,0,0,0,0,0,0,0,0,0,0,0,0,0,0,0,0,0,0,0,0,0,0,0,0,0,0],"sum_hessian":[1.2056315E3,6.231914E2,5.8244E2,2.1596939E2,4.0722205E2,4.6321152E2,1.19228516E2,9.398256E1,1.2198684E2,2.0423514E2,2.029869E2,3.2672937E2,1.3648215E2,1.7998405E1,1.0123011E2,6.2485962E1,3.1496595E1,9.1988365E1,2.9998472E1,1.979855E2,6.249648E0,1.18741585E2,8.42453E1,1.549915E2,1.7173787E2,1.4749158E1,1.21732994E2,8.749511E0,9.248894E0,1.8746656E1,8.248345E1,2.6242163E1,3.62438E1,1.7499418E0,2.9746655E1,8.248927E1,9.499093E0,3.2497544E0,2.6748716E1,8.449155E1,1.1349395E2,4.749714E0,1.4999342E0,8.74941E1,3.1247486E1,1.1249209E1,7.299609E1,1.5749058E1,1.3924245E2,2.5748531E1,1.4598933E2,1.1749341E1,2.999817E0,6.624146E1,5.5491528E1,6.4995704E0,2.2499404E0,5.9992256E0,3.2496684E0,1.4746927E1,3.999729E0,5.2991714E1,2.9491737E1,1.2496611E0,2.4992502E1,3.4243904E1,1.999894E0,2.7496773E1,2.2498808E0,4.5243828E1,3.724545E1,4.4994264E0,4.9996667E0,1.2499281E0,1.9998263E0,7.7497454E0,1.8998972E1,4.899507E1,3.5496475E1,7.7495804E1,3.5998146E1,3.4998302E0,1.2498835E0,7.424521E1,1.3248892E1,2.9747574E1,1.4999131E0,1.4999175E0,9.749291E0,1.874925E1,5.424684E1,6.7496204E0,8.999437E0,3.0748318E1,1.08494125E2,5.49969E0,2.024884E1,8.899565E1,5.699368E1,7.4995666E0,4.249775E0,1.2499784E0,1.7498385E0,3.5496635E1,3.074483E1,5.3991714E1,1.4998152E0,1.2498568E0,5.2497134E0,1.7497944E0,4.2494316E0,1.749775E0,1.4998933E0,1.9996587E0,1.2747269E1,5.124185E1,1.7498639E0,2.7992092E1,1.4996451E0],"tree_param":{"num_deleted":"0","num_feature":"12","num_nodes":"119","size_leaf_vector":"1"}},{"base_weights":[-6.5450347E-3,-6.1310476E-1,2.2842048E-1,-7.9541236E-1,-2.0545635E-1,5.7144213E-2,6.693952E-1,-1.0700127E0,-5.018408E-1,-6.5454125E-1,6.8762824E-2,-1.7779188E-1,2.4188758E-1,4.5133752E-1,1.0564009E0,-1.5092916E0,-8.7284184E-1,-5.8905476E-1,1.0148808E-1,-1.2085178E0,-4.0964273E-1,-2.8328633E-1,4.906901E-1,-2.8105098E-1,4.172953E-1,-2.4426544E-1,3.9997807E-1,6.436564E-2,6.7741275E-1,6.492955E-1,1.3426846E0,-1.7084302E0,-1.0062118E0,-1.2973332E0,-6.954441E-1,-6.789904E-1,4.9289085E-2,-1.9281223E-1,1.14452755E-2,-1.4300268E-2,-2.779334E-1,-6.615643E-1,1.6199705E-1,-1.0396079E0,-5.383264E-2,5.348552E-3,8.509127E-1,-1.0929401E0,-2.0390797E-1,-1.625702E-1,7.131554E-1,-4.2928505E-1,4.4964674E-1,-4.1752902E-1,4.7197604E-1,-1.0983241E-2,1.5747891E-1,5.770221E-1,1.3738457E0,8.340487E-1,-4.1515937E-1,2.0379843E-1,1.4240414E0,-6.3953293E-3,-1.7765274E-2,4.2787357E-3,-1.2406349E-2,-1.1146046E-3,-1.447311E-2,-9.024296E-3,-3.201721E-3,-1.0354829E-2,-4.8692585E-3,-7.3312414E-3,3.4978432E-3,4.366418E-3,-8.169993E-3,2.246323E-3,-6.5697473E-3,5.5946875E-3,-8.053753E-3,1.2744438E-2,-2.4067096E-3,-4.585136E-3,-1.5127767E-2,-3.0325353E-3,1.0783681E-2,-6.1225705E-3,7.1039246E-3,1.19604105E-2,1.979789E-3,-1.2244711E-2,1.8930178E-3,-1.0728376E-2,-1.4206227E-3,-4.4190455E-3,8.615209E-3,1.0257777E-2,3.8830363E-4,-8.961678E-3,-1.8025648E-3,-9.876632E-3,6.802302E-3,-1.0489886E-2,1.4632762E-3,3.7286228E-3,8.56897E-3,-2.827418E-3,3.807548E-3,-3.3055645E-4,6.8525462E-3,7.760326E-3,1.5822412E-2,4.0708002E-4,1.1023051E-2,-8.138267E-3,6.553489E-3,-4.7596013E-3,1.0950923E-2,9.533861E-3,1.656995E-2],"categories":[],"categories_nodes":[],"categories_segments":[],"categories_sizes":[],"default_left":[0,0,0,0,0,0,0,0,0,0,0,0,0,0,0,0,0,0,0,0,0,0,0,0,0,0,0,0,0,0,0,0,0,0,0,0,0,0,0,0,0,0,0,0,0,0,0,0,0,0,0,0,0,0,0,0,0,0,0,0,0,0,0,0,0,0,0,0,0,0,0,0,0,0,0,0,0,0,0,0,0,0,0,0,0,0,0,0,0,0,0,0,0,0,0,0,0,0,0,0,0,0,0,0,0,0,0,0,0,0,0,0,0,0,0,0,0,0,0,0,0],"id":4,"left_children":[1,3,5,7,9,11,13,15,17,19,21,23,25,27,29,31,33,35,37,39,41,43,45,47,49,51,53,55,57,59,61,63,65,67,69,71,73,75,-1,-1,77,79,81,83,85,87,89,91,93,95,97,99,101,103,105,-1,107,109,111,113,115,117,119,-1,-1,-1,-1,-1,-1,-1,-1,-1,-1,-1,-1,-1,-1,-1,-1,-1,-1,-1,-1,-1,-1,-1,-1,-1,-1,-1,-1,-1,-1,-1,-1,-1,-1,-1,-1,-1,-1,-1,-1,-1,-1,-1,-1,-1,-1,-1,-1,-1,-1,-1,-1,-1,-1,-1,-1,-1,-1],"loss_changes":[1.7160072E2,2.4820747E1,6.551117E1,1.8161423E1,1.3004448E1,2.722115E1,2.0004036E1,8.986343E0,6.057501E0,4.930542E0,9.978712E0,1.7090664E1,2.7071146E1,1.368939E1,9.234985E0,1.8357391E0,5.459427E0,5.7592697E0,4.9016204E0,2.0239677E0,4.31868E0,6.320955E0,5.327311E0,1.4556774E1,7.1919584E0,1.1329695E1,1.5807453E1,6.5596986E0,6.1276436E0,7.768305E0,4.3405304E0,6.098938E-1,4.731554E0,4.0616074E0,4.506466E0,5.485977E0,3.3713589E0,5.3658123E0,0E0,0E0,8.1426054E-1,4.0496035E0,4.6738E0,1.6430969E0,8.586323E0,6.530477E0,3.706459E0,3.6465187E0,1.1494592E1,4.5998473E0,5.756671E0,7.8602524E0,6.8853636E0,7.9858456E0,8.997711E0,0E0,5.5621853E0,5.8488884E0,2.3552704E-1,6.8698044E0,3.2003946E0,3.2471066E0,3.5162125E0,0E0,0E0,0E0,0E0,0E0,0E0,0E0,0E0,0E0,0E0,0E0,0E0,0E0,0E0,0E0,0E0,0E0,0E0,0E0,0E0,0E0,0E0,0E0,0E0,0E0,0E0,0E0,0E0,0E0,0E0,0E0,0E0,0E0,0E0,0E0,0E0,0E0,0E0,0E0,0E0,0E0,0E0,0E0,0E0,0E0,0E0,0E0,0E0,0E0,0E0,0E0,0E0,0E0,0E0,0E0,0E0,0E0,0E0],"parents":[2147483647,0,0,1,1,2,2,3,3,4,4,5,5,6,6,7,7,8,8,9,9,10,10,11,11,12,12,13,13,14,14,15,15,16,16,17,17,18,18,19,19,20,20,21,21,22,22,23,23,24,24,25,25,26,26,27,27,28,28,29,29,30,30,31,31,32,32,33,33,34,34,35,35,36,36,37,37,40,40,41,41,42,42,43,43,44,44,45,45,46,46,47,47,48,48,49,49,50,50,51,51,52,52,53,53,54,54,56,56,57,57,58,58,59,59,60,60,61,61,62,62],"right_children":[2,4,6,8,10,12,14,16,18,20,22,24,26,28,30,32,34,36,38,40,42,44,46,48,50,52,54,56,58,60,62,64,66,68,70,72,74,76,-1,-1,78,80,82,84,86,88,90,92,94,96,98,100,102,104,106,-1,108,110,112,114,116,118,120,-1,-1,-1,-1,-1,-1,-1,-1,-1,-1,-1,-1,-1,-1,-1,-1,-1,-1,-1,-1,-1,-1,-1,-1,-1,-1,-1,-1,-1,-1,-1,-1,-1,-1,-1,-1,-1,-1,-1,-1,-1,-1,-1,-1,-1,-1,-1,-1,-1,-1,-1,-1,-1,-1,-1,-1,-1,-1],"split_conditions":[-5E-2,1E-1,1.6E-1,2E-2,-1.22E0,-1.6E-1,8E-2,-2.4E-1,-3.1E-1,-4E-2,1E0,9E-2,-1.2E0,5E-2,-0E0,1E-1,-2E0,1E0,1.89E0,-7E-2,1.58E0,-1.5E-1,0E0,-1.41E0,-2E-2,2.09E0,-4E0,-7E-2,1.5E-1,2.15E0,-1.3E-1,-4E0,-1.7E-1,-1E0,2E-2,-2.09E0,-1.1E-1,-1.6E-1,1.14452755E-2,-1.4300268E-2,0E0,-2E-1,-1E0,6.4E-1,9E-2,1E-2,1.2E-1,5E-2,-4.2E-1,9E-2,2E0,-2.1E-1,-1.7E-1,2E-2,1.1E-1,-1.0983241E-2,-2E-1,-1.69E0,-4E-1,-9.2E-1,3.98E0,4E-1,2.7E-1,-6.3953293E-3,-1.7765274E-2,4.2787357E-3,-1.2406349E-2,-1.1146046E-3,-1.447311E-2,-9.024296E-3,-3.201721E-3,-1.0354829E-2,-4.8692585E-3,-7.3312414E-3,3.4978432E-3,4.366418E-3,-8.169993E-3,2.246323E-3,-6.5697473E-3,5.5946875E-3,-8.053753E-3,1.2744438E-2,-2.4067096E-3,-4.585136E-3,-1.5127767E-2,-3.0325353E-3,1.0783681E-2,-6.1225705E-3,7.1039246E-3,1.19604105E-2,1.979789E-3,-1.2244711E-2,1.8930178E-3,-1.0728376E-2,-1.4206227E-3,-4.4190455E-3,8.615209E-3,1.0257777E-2,3.8830363E-4,-8.961678E-3,-1.8025648E-3,-9.876632E-3,6.802302E-3,-1.0489886E-2,1.4632762E-3,3.7286228E-3,8.56897E-3,-2.827418E-3,3.807548E-3,-3.3055645E-4,6.8525462E-3,7.760326E-3,1.5822412E-2,4.0708002E-4,1.1023051E-2,-8.138267E-3,6.553489E-3,-4.7596013E-3,1.0950923E-2,9.533861E-3,1.656995E-2],"split_indices":[5,4,10,8,8,8,5,10,4,7,2,7,4,4,11,11,2,11,8,5,4,10,7,4,4,8,2,7,7,8,7,4,5,11,7,4,7,4,0,0,2,5,2,4,7,10,10,7,10,10,2,10,7,7,5,0,11,8,11,8,8,10,10,0,0,0,0,0,0,0,0,0,0,0,0,0,0,0,0,0,0,0,0,0,0,0,0,0,0,0,0,0,0,0,0,0,0,0,0,0,0,0,0,0,0,0,0,0,0,0,0,0,0,0,0,0,0,0,0,0,0],"split_type":[0,0,0,0,0,0,0,0,0,0,0,0,0,0,0,0,0,0,0,0,0,0,0,0,0,0,0,0,0,0,0,0,0,0,0,0,0,0,0,0,0,0,0,0,0,0,0,0,0,0,0,0,0,0,0,0,0,0,0,0,0,0,0,0,0,0,0,0,0,0,0,0,0,0,0,0,0,0,0,0,0,0,0,0,0,0,0,0,0,0,0,0,0,0,0,0,0,0,0,0,0,0,0,0,0,0,0,0,0,0,0,0,0,0,0,0,0,0,0,0,0],"sum_hessian":[1.2020588E3,3.3518213E2,8.6687665E2,2.309472E2,1.0423494E2,6.2518286E2,2.4169382E2,1.17962715E2,1.1298449E2,3.8991756E1,6.524319E1,2.7522275E2,3.4996008E2,1.5597577E2,8.571804E1,3.4482983E1,8.347973E1,9.873547E1,1.4249013E1,1.0746868E1,2.8244888E1,3.5745945E1,2.9497238E1,2.3497736E2,4.024539E1,8.574271E1,2.6421738E2,5.799342E1,9.7982346E1,3.6740204E1,4.8977837E1,2.2987642E1,1.1495339E1,2.2743689E1,6.0736042E1,8.648676E1,1.2248712E1,1.1749079E1,2.4999344E0,8.247095E0,2.4997725E0,1.9495789E1,8.749102E0,7.4985504E0,2.8247395E1,1.2998591E1,1.6498648E1,1.924685E1,2.1573051E2,1.3748937E1,2.6496454E1,6.7994514E1,1.7748198E1,2.0997728E1,2.4321965E2,3.4995508E0,5.449387E1,8.7235855E1,1.0746491E1,3.149091E1,5.249295E0,3.4991667E0,4.547867E1,1.9991512E0,2.0988491E1,1.499138E0,9.996201E0,2.7491755E0,1.9994513E1,3.8239746E1,2.2496296E1,2.8743816E1,5.7742947E1,2.9993768E0,9.249334E0,5.9994593E0,5.7496195E0,1.2499063E0,1.2498662E0,1.7496878E0,1.77461E1,1.7498392E0,6.9992623E0,4.249189E0,3.2493615E0,2.374794E1,4.4994545E0,6.999106E0,5.999485E0,1.0249277E1,6.24937E0,1.7497072E1,1.7497767E0,1.3248107E1,2.024824E2,1.1249089E1,2.4998467E0,1.7747421E1,8.749033E0,2.274784E1,4.524667E1,1.9997444E0,1.5748453E1,9.499225E0,1.1498504E1,1.9498215E2,4.823751E1,1.8248323E1,3.6245544E1,1.3249061E1,7.398679E1,3.9989033E0,6.747588E0,8.248522E0,2.3242388E1,3.9995868E0,1.2497085E0,2.2495234E0,1.2496432E0,1.6743334E1,2.8735334E1],"tree_param":{"num_deleted":"0","num_feature":"12","num_nodes":"121","size_leaf_vector":"1"}},{"base_weights":[-9.322292E-3,-3.447415E-1,3.5748887E-1,-6.0031915E-1,-8.6467065E-2,1.7459932E-1,7.787027E-1,-1.0249902E0,-4.4945833E-1,-3.2387087E-1,2.733853E-1,2.5734186E-2,5.848521E-1,4.4783923E-1,9.640736E-1,-1.415769E0,-6.511549E-1,-5.9342015E-1,-8.5899405E-2,-4.0384895E-1,6.1647636E-1,-4.5039707E-1,3.8160884E-1,-6.316684E-1,1.0363256E-1,-1.6107614E-1,7.01217E-1,-2.1122737E-1,6.273618E-1,9.9369085E-1,-5.572397E-3,-1.8526544E-1,-1.5310563E0,-8.700828E-1,-6.648397E-2,-6.706627E-1,-1.1926875E-1,-7.93493E-1,8.8535585E-2,-7.855152E-1,-2.2857961E-1,1.8035133E-1,1.043118E0,-6.2262625E-1,7.8051463E-3,-1.3650616E-1,5.306008E-1,-8.9043903E-1,2.3976117E-1,-4.7217372E-1,1.8246405E-1,-7.3945826E-1,4.192996E-1,5.481128E-1,1.1617074E0,-4.7145012E-1,6.605121E-1,2.8431785E-1,8.69838E-1,7.4756306E-1,1.2081345E0,-8.700086E-3,5.6654285E-3,-1.5862336E-2,-6.372569E-3,-1.5229287E-2,-7.352983E-3,1.8421111E-3,-1.1930451E-2,-7.572813E-3,-4.1025138E-4,-9.280931E-3,1.1919957E-3,-1.0546721E-2,-9.037954E-4,-1.5648716E-3,6.4903754E-3,-1.4292272E-2,-5.664107E-3,-9.0534445E-3,-1.1922935E-3,-7.4894154E-3,6.1722538E-3,-4.09651E-3,1.4746572E-2,2.2066184E-3,-8.925927E-3,-1.2602617E-2,7.995069E-6,-1.728375E-3,6.6829673E-3,-1.0240279E-2,5.3850254E-3,-1.11460015E-2,6.557061E-3,-1.2714413E-2,-2.410505E-3,-2.3900818E-3,3.7475764E-3,7.934756E-5,-1.0806213E-2,9.957509E-3,-9.979428E-4,4.3878113E-3,1.2820875E-2,2.4732202E-3,1.395802E-2,-7.4557173E-3,2.4604057E-3,7.987305E-3,2.1328551E-3,6.2032924E-3,-6.382308E-3,4.168147E-3,1.1298127E-2,8.112431E-3,-4.8163524E-3,5.8826897E-3,1.3056427E-2],"categories":[],"categories_nodes":[],"categories_segments":[],"categories_sizes":[],"default_left":[0,0,0,0,0,0,0,0,0,0,0,0,0,0,0,0,0,0,0,0,0,0,0,0,0,0,0,0,0,0,0,0,0,0,0,0,0,0,0,0,0,0,0,0,0,0,0,0,0,0,0,0,0,0,0,0,0,0,0,0,0,0,0,0,0,0,0,0,0,0,0,0,0,0,0,0,0,0,0,0,0,0,0,0,0,0,0,0,0,0,0,0,0,0,0,0,0,0,0,0,0,0,0,0,0,0,0,0,0,0,0,0,0,0,0,0,0,0,0],"id":5,"left_children":[1,3,5,7,9,11,13,15,17,19,21,23,25,27,29,31,33,35,37,39,41,43,45,47,49,51,53,55,57,59,-1,61,63,65,67,69,71,73,75,77,79,81,83,85,-1,87,89,91,93,95,97,99,101,103,105,107,109,111,113,115,117,-1,-1,-1,-1,-1,-1,-1,-1,-1,-1,-1,-1,-1,-1,-1,-1,-1,-1,-1,-1,-1,-1,-1,-1,-1,-1,-1,-1,-1,-1,-1,-1,-1,-1,-1,-1,-1,-1,-1,-1,-1,-1,-1,-1,-1,-1,-1,-1,-1,-1,-1,-1,-1,-1,-1,-1,-1,-1],"loss_changes":[1.4800853E2,4.1425705E1,4.412957E1,1.976255E1,2.6888037E1,2.4532322E1,1.0219963E1,1.1051613E1,1.2232887E1,1.4498077E1,9.9815855E0,1.5222207E1,9.397953E0,7.732052E0,5.529915E0,5.280304E0,5.5409718E0,6.07135E0,8.431769E0,1.1541544E1,2.6488657E0,4.0366726E0,8.524234E0,7.3158846E0,1.2136411E1,5.428705E0,5.9004097E0,3.6002855E0,3.972561E0,4.833664E0,0E0,2.808208E0,7.509613E-1,1.6732235E0,3.8910334E0,7.833992E0,4.883346E0,2.38338E0,7.688786E0,6.909771E0,8.882612E0,4.014112E0,5.3049498E0,3.6685686E0,0E0,3.8967433E0,8.37174E0,5.2276745E0,5.237125E0,5.6504793E0,1.9072739E1,2.0482583E0,2.567844E0,5.173397E0,4.415884E0,2.494201E0,6.141436E-2,7.3689737E0,2.9724674E0,4.5573635E0,2.6445694E0,0E0,0E0,0E0,0E0,0E0,0E0,0E0,0E0,0E0,0E0,0E0,0E0,0E0,0E0,0E0,0E0,0E0,0E0,0E0,0E0,0E0,0E0,0E0,0E0,0E0,0E0,0E0,0E0,0E0,0E0,0E0,0E0,0E0,0E0,0E0,0E0,0E0,0E0,0E0,0E0,0E0,0E0,0E0,0E0,0E0,0E0,0E0,0E0,0E0,0E0,0E0,0E0,0E0,0E0,0E0,0E0,0E0,0E0],"parents":[2147483647,0,0,1,1,2,2,3,3,4,4,5,5,6,6,7,7,8,8,9,9,10,10,11,11,12,12,13,13,14,14,15,15,16,16,17,17,18,18,19,19,20,20,21,21,22,22,23,23,24,24,25,25,26,26,27,27,28,28,29,29,31,31,32,32,33,33,34,34,35,35,36,36,37,37,38,38,39,39,40,40,41,41,42,42,43,43,45,45,46,46,47,47,48,48,49,49,50,50,51,51,52,52,53,53,54,54,55,55,56,56,57,57,58,58,59,59,60,60],"right_children":[2,4,6,8,10,12,14,16,18,20,22,24,26,28,30,32,34,36,38,40,42,44,46,48,50,52,54,56,58,60,-1,62,64,66,68,70,72,74,76,78,80,82,84,86,-1,88,90,92,94,96,98,100,102,104,106,108,110,112,114,116,118,-1,-1,-1,-1,-1,-1,-1,-1,-1,-1,-1,-1,-1,-1,-1,-1,-1,-1,-1,-1,-1,-1,-1,-1,-1,-1,-1,-1,-1,-1,-1,-1,-1,-1,-1,-1,-1,-1,-1,-1,-1,-1,-1,-1,-1,-1,-1,-1,-1,-1,-1,-1,-1,-1,-1,-1,-1,-1],"split_conditions":[1E-2,-3.7E-1,1.6E-1,-2.4E-1,-1.3E-1,1.1E-1,4.1E-1,-2E-2,-3E-2,1.3E-1,-1E0,-4E0,-1.42E0,-1.3E-1,6E0,-1.4E1,-1.17E0,1E0,-7E-2,-8E-2,-3E-2,1.2E-1,-1E-1,9E-2,-1.94E0,8.2E-1,3E0,4.8E-1,7E-2,-0E0,-5.572397E-3,-2E0,4E-2,-1.6E-1,-5.2E-1,2.09E0,-2E0,4E0,1.2E-1,-2.36E0,-9E-2,1.6E-1,-2.79E0,2.3E-1,7.8051463E-3,-4E0,-8E-2,1.3E-1,-1.1E1,-3.3E-1,-5.6E-1,-5.8E-1,-2E-1,2.12E0,1.2E-1,7E-2,7E-2,5E-2,1E-2,2.2E1,-3E0,-8.700086E-3,5.6654285E-3,-1.5862336E-2,-6.372569E-3,-1.5229287E-2,-7.352983E-3,1.8421111E-3,-1.1930451E-2,-7.572813E-3,-4.1025138E-4,-9.280931E-3,1.1919957E-3,-1.0546721E-2,-9.037954E-4,-1.5648716E-3,6.4903754E-3,-1.4292272E-2,-5.664107E-3,-9.0534445E-3,-1.1922935E-3,-7.4894154E-3,6.1722538E-3,-4.09651E-3,1.4746572E-2,2.2066184E-3,-8.925927E-3,-1.2602617E-2,7.995069E-6,-1.728375E-3,6.6829673E-3,-1.0240279E-2,5.3850254E-3,-1.11460015E-2,6.557061E-3,-1.2714413E-2,-2.410505E-3,-2.3900818E-3,3.7475764E-3,7.934756E-5,-1.0806213E-2,9.957509E-3,-9.979428E-4,4.3878113E-3,1.2820875E-2,2.4732202E-3,1.395802E-2,-7.4557173E-3,2.4604057E-3,7.987305E-3,2.1328551E-3,6.2032924E-3,-6.382308E-3,4.168147E-3,1.1298127E-2,8.112431E-3,-4.8163524E-3,5.8826897E-3,1.3056427E-2],"split_indices":[5,4,10,10,8,5,4,8,5,7,1,2,8,8,0,1,4,1,7,5,5,7,10,7,8,4,2,10,5,8,0,2,9,7,4,8,2,2,9,8,7,4,8,4,0,2,7,10,1,9,4,4,9,4,5,7,5,5,7,1,2,0,0,0,0,0,0,0,0,0,0,0,0,0,0,0,0,0,0,0,0,0,0,0,0,0,0,0,0,0,0,0,0,0,0,0,0,0,0,0,0,0,0,0,0,0,0,0,0,0,0,0,0,0,0,0,0,0,0],"split_type":[0,0,0,0,0,0,0,0,0,0,0,0,0,0,0,0,0,0,0,0,0,0,0,0,0,0,0,0,0,0,0,0,0,0,0,0,0,0,0,0,0,0,0,0,0,0,0,0,0,0,0,0,0,0,0,0,0,0,0,0,0,0,0,0,0,0,0,0,0,0,0,0,0,0,0,0,0,0,0,0,0,0,0,0,0,0,0,0,0,0,0,0,0,0,0,0,0,0,0,0,0,0,0,0,0,0,0,0,0,0,0,0,0,0,0,0,0,0,0],"sum_hessian":[1.2009725E3,6.273613E2,5.736112E2,3.146613E2,3.1270007E2,4.0093927E2,1.7267189E2,8.09615E1,2.3369978E2,1.8846492E2,1.24235146E2,2.94969E2,1.0597031E2,6.3230118E1,1.0944178E2,3.8221027E1,4.274048E1,1.6695628E2,6.67435E1,1.7421794E2,1.4246987E1,1.5748685E1,1.0848646E2,3.049613E1,2.6447284E2,1.424865E1,9.172166E1,1.3498298E1,4.973182E1,1.07692024E2,1.7497494E0,3.4975338E0,3.472349E1,3.0741335E1,1.1999142E1,1.4321165E2,2.3744621E1,1.2497717E1,5.424578E1,5.3731197E1,1.2048674E2,7.748735E0,6.4982524E0,1.4249122E1,1.4995629E0,2.4248129E1,8.4238335E1,2.3496916E1,6.9992137E0,3.1246973E1,2.3322588E2,6.999295E0,7.2493544E0,7.047902E1,2.1242638E1,1.0748847E1,2.7494512E0,2.1494698E1,2.8237123E1,5.223051E1,5.5461517E1,1.7481272E0,1.7494066E0,3.1974863E1,2.7486305E0,3.498229E0,2.7243107E1,1.049922E1,1.4999211E0,1.2571452E2,1.7497139E1,4.748162E0,1.899646E1,8.748127E0,3.7495897E0,3.8246975E1,1.5998809E1,1.2242026E1,4.148917E1,1.5747392E1,1.0473935E2,2.2494717E0,5.4992633E0,1.4998282E0,4.998424E0,3.499729E0,1.07493925E1,1.7496763E0,2.2498453E1,1.3748261E1,7.0490074E1,2.1747183E1,1.7497342E0,1.2498584E0,5.7493553E0,5.99926E0,2.5247713E1,7.299385E1,1.6023203E2,2.4997604E0,4.4995346E0,2.99982E0,4.249534E0,6.273233E1,7.7466874E0,4.749063E0,1.6493574E1,7.7491136E0,2.9997332E0,1.4999256E0,1.2495254E0,1.5996157E1,5.498541E0,1.1245091E1,1.6992031E1,4.9981197E1,2.2493107E0,8.494496E0,4.6967022E1],"tree_param":{"num_deleted":"0","num_feature":"12","num_nodes":"119","size_leaf_vector":"1"}},{"base_weights":[-1.2930651E-2,-3.4851503E-1,3.5921147E-1,-2.1910663E-1,-1.1418841E0,8.693612E-1,1.8685745E-1,-5.8282053E-1,-3.5559677E-2,-1.3098663E0,-5.8683157E-1,1.1921278E0,4.855184E-1,-4.9502756E-3,5.905899E-1,-6.240647E-1,9.995584E-1,6.27978E-1,-1.447954E-1,1.408862E-4,-1.3510036E0,-1.1257387E0,1.4794813E-2,-1.5449867E-2,1.2762368E0,2.437793E-1,1.2904636E0,1.0059889E-1,-5.763093E-1,9.5246154E-1,3.6664435E-1,-3.132462E-1,-8.172613E-1,-2.049141E-3,1.455592E-2,8.619999E-1,-4.0152766E-2,-2.1485998E-1,8.586881E-1,-1.4017904E0,-2.2963558E-1,-1.623316E-2,-5.5619514E-1,-8.360974E-1,6.288678E-1,-5.4001653E-1,1.0987588E-2,-6.563285E-5,1.3036373E0,-3.314467E-2,7.69203E-1,-2.352207E-3,1.4435975E-2,-1.1292022E-1,3.4597546E-1,-1.43884765E-2,-3.451196E-1,1.3904132E0,7.656509E-1,-4.9913788E-1,4.7400817E-1,-5.7843807E-3,1.9218153E-3,-1.12113105E-2,-4.5308988E-3,2.5070398E-3,1.0499622E-2,-6.6533023E-3,7.0239054E-3,-2.8305894E-3,4.568465E-3,4.4693435E-3,1.3874375E-2,-1.4687774E-2,-6.385168E-3,6.8090293E-3,-8.91135E-3,-9.3664015E-3,6.6303364E-3,5.6538884E-5,-1.1743731E-2,1.4773336E-2,-2.1798268E-3,5.272482E-3,-1.3381218E-2,1.080201E-2,1.5735133E-2,-1.3824702E-3,1.26872845E-2,1.4270187E-2,8.38862E-4,-1.183631E-2,-5.9131783E-4,5.6344934E-4,6.4891404E-3,1.1933515E-2,-4.4373376E-3,1.6482085E-2,6.8033263E-3,8.542989E-3,-1.4982524E-3,-9.05127E-3,9.004338E-3,1.6281809E-4,6.336441E-3],"categories":[],"categories_nodes":[],"categories_segments":[],"categories_sizes":[],"default_left":[0,0,0,0,0,0,0,0,0,0,0,0,0,0,0,0,0,0,0,0,0,0,0,0,0,0,0,0,0,0,0,0,0,0,0,0,0,0,0,0,0,0,0,0,0,0,0,0,0,0,0,0,0,0,0,0,0,0,0,0,0,0,0,0,0,0,0,0,0,0,0,0,0,0,0,0,0,0,0,0,0,0,0,0,0,0,0,0,0,0,0,0,0,0,0,0,0,0,0,0,0,0,0,0,0],"id":6,"left_children":[1,3,5,7,9,11,13,15,17,19,21,23,25,27,29,31,33,35,37,-1,39,41,43,45,47,49,51,53,55,57,59,61,63,-1,-1,65,67,69,71,73,75,-1,77,79,81,83,-1,-1,85,87,89,-1,-1,91,93,-1,95,97,99,101,103,-1,-1,-1,-1,-1,-1,-1,-1,-1,-1,-1,-1,-1,-1,-1,-1,-1,-1,-1,-1,-1,-1,-1,-1,-1,-1,-1,-1,-1,-1,-1,-1,-1,-1,-1,-1,-1,-1,-1,-1,-1,-1,-1,-1],"loss_changes":[1.4934592E2,6.430785E1,4.969744E1,3.6152813E1,7.43116E0,1.71288E1,3.292504E1,1.2480236E1,2.6270475E1,3.651802E0,7.2285047E0,7.8357773E0,1.2717682E1,1.749877E1,1.0747807E1,1.041291E1,3.0442462E0,8.046841E0,2.204653E1,0E0,3.362854E0,2.425953E0,6.5332193E0,4.0995893E0,2.5377274E0,7.6991267E0,3.8990288E0,1.2873114E1,8.525434E0,3.1669235E0,8.250366E0,9.456791E0,1.1547951E1,0E0,0E0,4.1024094E0,7.081616E0,1.3480548E1,3.841689E0,2.2169342E0,3.0156033E0,0E0,3.867192E0,1.501147E0,5.5303574E0,4.7508197E0,0E0,0E0,2.5487442E0,5.032197E0,8.104781E0,0E0,0E0,7.5169497E0,9.985382E0,0E0,6.1423163E0,1.4853058E0,3.250946E0,6.4963293E0,5.63167E0,0E0,0E0,0E0,0E0,0E0,0E0,0E0,0E0,0E0,0E0,0E0,0E0,0E0,0E0,0E0,0E0,0E0,0E0,0E0,0E0,0E0,0E0,0E0,0E0,0E0,0E0,0E0,0E0,0E0,0E0,0E0,0E0,0E0,0E0,0E0,0E0,0E0,0E0,0E0,0E0,0E0,0E0,0E0,0E0],"parents":[2147483647,0,0,1,1,2,2,3,3,4,4,5,5,6,6,7,7,8,8,9,9,10,10,11,11,12,12,13,13,14,14,15,15,16,16,17,17,18,18,20,20,21,21,22,22,23,23,24,24,25,25,26,26,27,27,28,28,29,29,30,30,31,31,32,32,35,35,36,36,37,37,38,38,39,39,40,40,42,42,43,43,44,44,45,45,48,48,49,49,50,50,53,53,54,54,56,56,57,57,58,58,59,59,60,60],"right_children":[2,4,6,8,10,12,14,16,18,20,22,24,26,28,30,32,34,36,38,-1,40,42,44,46,48,50,52,54,56,58,60,62,64,-1,-1,66,68,70,72,74,76,-1,78,80,82,84,-1,-1,86,88,90,-1,-1,92,94,-1,96,98,100,102,104,-1,-1,-1,-1,-1,-1,-1,-1,-1,-1,-1,-1,-1,-1,-1,-1,-1,-1,-1,-1,-1,-1,-1,-1,-1,-1,-1,-1,-1,-1,-1,-1,-1,-1,-1,-1,-1,-1,-1,-1,-1,-1,-1,-1],"split_conditions":[1E-2,1.84E0,-1.24E0,-8E-2,1.6E-1,0E0,1.4E-1,8E0,-5E0,-9E0,-3E-1,-1.45E0,2.3E-1,6E0,-2E0,0E0,-9.9E-1,-1E-2,1.3E-1,1.408862E-4,0E0,-1.59E0,-7E-2,-1E0,-1.1E-1,8E-2,-8E-1,7E-2,-2.4E-1,-3.7E-1,-1.86E0,2E-2,-0E0,-2.049141E-3,1.455592E-2,-7E-2,4.8E-1,3.1E-1,-0E0,8E0,-8.1E-1,-1.623316E-2,5E-2,-1E0,-6E-2,0E0,1.0987588E-2,-6.563285E-5,1.1E-1,6E0,-2.01E0,-2.352207E-3,1.4435975E-2,-4.6E-1,3E-2,-1.43884765E-2,-5.1E-1,1.9E-1,1.54E0,8E-2,-5E-1,-5.7843807E-3,1.9218153E-3,-1.12113105E-2,-4.5308988E-3,2.5070398E-3,1.0499622E-2,-6.6533023E-3,7.0239054E-3,-2.8305894E-3,4.568465E-3,4.4693435E-3,1.3874375E-2,-1.4687774E-2,-6.385168E-3,6.8090293E-3,-8.91135E-3,-9.3664015E-3,6.6303364E-3,5.6538884E-5,-1.1743731E-2,1.4773336E-2,-2.1798268E-3,5.272482E-3,-1.3381218E-2,1.080201E-2,1.5735133E-2,-1.3824702E-3,1.26872845E-2,1.4270187E-2,8.38862E-4,-1.183631E-2,-5.9131783E-4,5.6344934E-4,6.4891404E-3,1.1933515E-2,-4.4373376E-3,1.6482085E-2,6.8033263E-3,8.542989E-3,-1.4982524E-3,-9.05127E-3,9.004338E-3,1.6281809E-4,6.336441E-3],"split_indices":[5,6,6,5,10,3,10,2,3,3,11,8,10,3,3,3,8,5,7,0,5,8,7,3,7,7,11,5,10,6,8,7,8,0,0,7,8,10,11,3,8,0,7,3,5,2,0,0,5,2,6,0,0,10,9,0,9,9,8,7,11,0,0,0,0,0,0,0,0,0,0,0,0,0,0,0,0,0,0,0,0,0,0,0,0,0,0,0,0,0,0,0,0,0,0,0,0,0,0,0,0,0,0,0,0],"split_type":[0,0,0,0,0,0,0,0,0,0,0,0,0,0,0,0,0,0,0,0,0,0,0,0,0,0,0,0,0,0,0,0,0,0,0,0,0,0,0,0,0,0,0,0,0,0,0,0,0,0,0,0,0,0,0,0,0,0,0,0,0,0,0,0,0,0,0,0,0,0,0,0,0,0,0,0,0,0,0,0,0,0,0,0,0,0,0,0,0,0,0,0,0,0,0,0,0,0,0,0,0,0,0,0,0],"sum_hessian":[1.1938644E3,6.278002E2,5.6606415E2,5.40856E2,8.694419E1,1.4192804E2,4.241361E2,1.8066924E2,3.6018677E2,6.570055E1,2.1243639E1,7.595395E1,6.597409E1,2.882027E2,1.359334E2,1.7667E2,3.9992278E0,5.0243084E1,3.099437E2,1.9997123E0,6.3700836E1,1.0746393E1,1.0497246E1,4.998941E0,7.095501E1,5.173886E1,1.42352295E1,2.439592E2,4.4243507E1,5.0720882E1,8.521251E1,6.872509E1,1.07944916E2,1.2495599E0,2.749668E0,3.6994934E1,1.3248148E1,2.9044995E2,1.9493725E1,6.0701595E1,2.9992433E0,4.748072E0,5.998321E0,4.2485995E0,6.248646E0,3.749175E0,1.249766E0,1.4997991E0,6.945521E1,3.4495148E1,1.7243711E1,1.2495751E0,1.2985655E1,1.3073631E2,1.13222885E2,8.247926E0,3.5995583E1,1.3239592E1,3.748129E1,8.998615E0,7.62139E1,4.4980114E1,2.3744978E1,5.7711246E1,5.023367E1,9.248972E0,2.7745964E1,7.248948E0,5.9992003E0,2.642037E2,2.6246244E1,1.1996748E1,7.4969764E0,5.495433E1,5.7472625E0,1.2497115E0,1.7495317E0,4.7484145E0,1.2499067E0,1.4998127E0,2.7487867E0,2.749449E0,3.499197E0,1.7493008E0,1.9998741E0,4.0733593E1,2.8721617E1,3.274537E1,1.7497785E0,8.246173E0,8.997539E0,5.2487884E0,1.25487526E2,5.8489147E1,5.4733738E1,1.4995778E0,3.4496002E1,8.7439375E0,4.495654E0,3.4233223E1,3.2480688E0,7.2490783E0,1.7495372E0,1.9992138E1,5.6221756E1],"tree_param":{"num_deleted":"0","num_feature":"12","num_nodes":"105","size_leaf_vector":"1"}},{"base_weights":[1.0748502E-2,-3.4392792E-1,3.3619618E-1,-1.6382983E-1,-8.9880294E-1,8.096308E-1,1.8575408E-1,-4.6093538E-1,2.58064E-1,-1.2969582E0,-5.555268E-1,5.755138E-1,1.4900928E0,-1.6079539E-1,4.589077E-1,-8.108681E-2,-7.0426667E-1,1.114162E0,1.6066612E-1,-4.075323E-1,-1.3600999E0,-1.3318574E0,-3.225434E-1,-7.647052E-2,8.007615E-1,5.538808E-1,1.5607277E0,-8.782963E-1,-7.167587E-2,5.4880655E-1,-3.0044812E-1,-5.956096E-1,1.1611625E-1,-3.1513587E-1,-8.859338E-1,1.299661E0,-1.5599346E-3,4.9976116E-1,-6.278559E-2,1.6196628E-1,-9.833506E-3,-7.317308E-1,-1.4318908E0,-2.9639031E-3,-1.44449705E-2,-1.1831784E0,-6.180014E-2,3.0778825E-1,-9.582776E-1,1.0980928E0,2.98419E-1,9.68652E-3,-2.4518576E-3,1.5989852E0,6.1597624E-3,3.613597E-1,-1.095098E0,-5.981467E-1,4.2066913E-2,3.0367428E-1,7.9761654E-1,-1.3110005E0,-3.802536E-2,-7.5142033E-4,-8.320174E-3,-1.0123801E-2,2.159169E-3,-5.416131E-4,-6.6552293E-3,-1.0418374E-2,-1.3323404E-3,4.480981E-3,1.4045176E-2,-2.0243248E-3,6.14703E-3,-1.154708E-3,1.4302384E-2,-6.403445E-3,8.191308E-3,3.670725E-3,-1.1422623E-2,-5.1334635E-3,-1.4669801E-2,2.4944686E-3,-1.3401232E-2,1.1674715E-2,-1.9163851E-3,-2.3032927E-3,7.5495318E-3,-3.737403E-3,-1.409566E-2,3.274997E-3,1.2166439E-2,1.4596912E-2,4.1313923E-4,1.6457582E-2,3.654543E-3,9.125132E-3,-3.893945E-3,-3.1199052E-3,-1.1638126E-2,-8.147109E-3,-1.1873766E-3,-7.171159E-3,1.2967464E-3,1.0454896E-3,9.009375E-3,-2.4268467E-3,8.6947465E-3,-1.53175E-2,-3.891626E-3,1.2716212E-2,-3.012694E-3],"categories":[],"categories_nodes":[],"categories_segments":[],"categories_sizes":[],"default_left":[0,0,0,0,0,0,0,0,0,0,0,0,0,0,0,0,0,0,0,0,0,0,0,0,0,0,0,0,0,0,0,0,0,0,0,0,0,0,0,0,0,0,0,0,0,0,0,0,0,0,0,0,0,0,0,0,0,0,0,0,0,0,0,0,0,0,0,0,0,0,0,0,0,0,0,0,0,0,0,0,0,0,0,0,0,0,0,0,0,0,0,0,0,0,0,0,0,0,0,0,0,0,0,0,0,0,0,0,0,0,0,0,0],"id":7,"left_children":[1,3,5,7,9,11,13,15,17,19,21,23,25,27,29,31,33,35,37,39,41,43,45,47,49,51,53,55,57,59,61,63,65,67,69,71,-1,73,75,77,-1,79,81,-1,-1,83,85,87,89,91,93,-1,-1,95,-1,97,99,101,103,105,107,109,111,-1,-1,-1,-1,-1,-1,-1,-1,-1,-1,-1,-1,-1,-1,-1,-1,-1,-1,-1,-1,-1,-1,-1,-1,-1,-1,-1,-1,-1,-1,-1,-1,-1,-1,-1,-1,-1,-1,-1,-1,-1,-1,-1,-1,-1,-1,-1,-1,-1,-1],"loss_changes":[1.4038908E2,5.8013275E1,4.502292E1,5.5348152E1,1.8741112E1,2.345964E1,4.575688E1,2.3872776E1,1.5055781E1,3.106018E0,1.3717232E1,1.6979012E1,1.6778717E0,1.358637E1,1.8605762E1,1.044117E1,1.0867416E1,4.5604057E0,1.254998E1,2.0442314E0,1.6782303E0,1.6403751E0,1.3723181E1,1.0627052E1,1.2473507E1,1.6451464E0,2.8723907E-1,6.7102966E0,1.1460541E1,1.4511238E1,7.704831E0,3.4425411E0,8.635652E0,4.694807E0,1.2410667E1,8.212185E-1,0E0,5.43021E0,8.06877E0,2.5009196E0,0E0,4.136804E0,9.612198E-1,0E0,0E0,3.5360813E0,7.9230595E0,5.466402E0,1.9786406E0,4.485916E0,9.864109E0,0E0,0E0,1.3141251E0,0E0,2.1136012E0,7.263546E-1,3.4325323E0,1.0599705E1,1.4589215E1,9.139008E0,6.2452316E-1,8.7412E0,0E0,0E0,0E0,0E0,0E0,0E0,0E0,0E0,0E0,0E0,0E0,0E0,0E0,0E0,0E0,0E0,0E0,0E0,0E0,0E0,0E0,0E0,0E0,0E0,0E0,0E0,0E0,0E0,0E0,0E0,0E0,0E0,0E0,0E0,0E0,0E0,0E0,0E0,0E0,0E0,0E0,0E0,0E0,0E0,0E0,0E0,0E0,0E0,0E0,0E0],"parents":[2147483647,0,0,1,1,2,2,3,3,4,4,5,5,6,6,7,7,8,8,9,9,10,10,11,11,12,12,13,13,14,14,15,15,16,16,17,17,18,18,19,19,20,20,21,21,22,22,23,23,24,24,25,25,26,26,27,27,28,28,29,29,30,30,31,31,32,32,33,33,34,34,35,35,37,37,38,38,39,39,41,41,42,42,45,45,46,46,47,47,48,48,49,49,50,50,53,53,55,55,56,56,57,57,58,58,59,59,60,60,61,61,62,62],"right_children":[2,4,6,8,10,12,14,16,18,20,22,24,26,28,30,32,34,36,38,40,42,44,46,48,50,52,54,56,58,60,62,64,66,68,70,72,-1,74,76,78,-1,80,82,-1,-1,84,86,88,90,92,94,-1,-1,96,-1,98,100,102,104,106,108,110,112,-1,-1,-1,-1,-1,-1,-1,-1,-1,-1,-1,-1,-1,-1,-1,-1,-1,-1,-1,-1,-1,-1,-1,-1,-1,-1,-1,-1,-1,-1,-1,-1,-1,-1,-1,-1,-1,-1,-1,-1,-1,-1,-1,-1,-1,-1,-1,-1,-1,-1],"split_conditions":[0E0,1.26E0,-1.24E0,-3.1E-1,9E-2,7.2E-1,3.9E-1,-7.7E-1,-1.28E0,-5E0,-2.18E0,-0E0,-3.6E-1,-1.76E0,2.26E0,-2.3E-1,-1E0,5E0,-1E0,-1.2E-1,0E0,-3.7E-1,-1.3E-1,4E-2,1E0,-1.98E0,5.7E-1,-1E0,-1.17E0,2E-2,-2.55E0,-1.98E0,-4E0,4E-2,1.17E0,-9E0,-1.5599346E-3,-1E0,1.6E1,-1.25E0,-9.833506E-3,0E0,-5.6E-1,-2.9639031E-3,-1.44449705E-2,1.8E-1,-1.94E0,-7.1E-1,-5.5E-1,-2.22E0,-2.76E0,9.68652E-3,-2.4518576E-3,7E0,6.1597624E-3,-2.22E0,-6.3E-1,6E-2,-4E0,2.12E0,-2.14E0,3.19E0,-2.7E-1,-7.5142033E-4,-8.320174E-3,-1.0123801E-2,2.159169E-3,-5.416131E-4,-6.6552293E-3,-1.0418374E-2,-1.3323404E-3,4.480981E-3,1.4045176E-2,-2.0243248E-3,6.14703E-3,-1.154708E-3,1.4302384E-2,-6.403445E-3,8.191308E-3,3.670725E-3,-1.1422623E-2,-5.1334635E-3,-1.4669801E-2,2.4944686E-3,-1.3401232E-2,1.1674715E-2,-1.9163851E-3,-2.3032927E-3,7.5495318E-3,-3.737403E-3,-1.409566E-2,3.274997E-3,1.2166439E-2,1.4596912E-2,4.1313923E-4,1.6457582E-2,3.654543E-3,9.125132E-3,-3.893945E-3,-3.1199052E-3,-1.1638126E-2,-8.147109E-3,-1.1873766E-3,-7.171159E-3,1.2967464E-3,1.0454896E-3,9.009375E-3,-2.4268467E-3,8.6947465E-3,-1.53175E-2,-3.891626E-3,1.2716212E-2,-3.012694E-3],"split_indices":[5,6,6,4,4,4,4,6,6,3,8,8,9,4,6,10,3,3,3,5,1,10,10,9,3,6,9,6,8,9,8,6,2,9,8,1,0,1,1,4,0,3,9,0,0,4,8,4,8,4,6,0,0,3,0,4,8,10,2,4,8,6,9,0,0,0,0,0,0,0,0,0,0,0,0,0,0,0,0,0,0,0,0,0,0,0,0,0,0,0,0,0,0,0,0,0,0,0,0,0,0,0,0,0,0,0,0,0,0,0,0,0,0],"split_type":[0,0,0,0,0,0,0,0,0,0,0,0,0,0,0,0,0,0,0,0,0,0,0,0,0,0,0,0,0,0,0,0,0,0,0,0,0,0,0,0,0,0,0,0,0,0,0,0,0,0,0,0,0,0,0,0,0,0,0,0,0,0,0,0,0,0,0,0,0,0,0,0,0,0,0,0,0,0,0,0,0,0,0,0,0,0,0,0,0,0,0,0,0,0,0,0,0,0,0,0,0,0,0,0,0,0,0,0,0,0,0,0,0],"sum_hessian":[1.2142399E3,5.810014E2,6.3323846E2,4.3961047E2,1.4139095E2,1.51643E2,4.8159546E2,2.5789996E2,1.8171053E2,6.4176476E1,7.721446E1,1.141982E2,3.74448E1,2.1245966E2,2.691358E2,1.0122206E2,1.5667789E2,1.7495047E1,1.6421547E2,4.748101E0,5.9428375E1,1.673494E1,6.0479523E1,2.9492388E1,8.470581E1,3.247194E0,3.419761E1,2.2495247E1,1.899644E2,2.4089404E2,2.8241772E1,2.7486557E1,7.3735504E1,5.073604E1,1.0594185E2,1.5245323E1,2.2497237E0,6.473759E1,9.947789E1,2.7484932E0,1.999608E0,7.2411113E0,5.2187267E1,1.9981136E0,1.4736826E1,1.3240129E1,4.723939E1,2.0994654E1,8.497733E0,5.2465874E1,3.2239937E1,1.9979101E0,1.2492839E0,3.2201138E1,1.99647E0,3.2492876E0,1.924596E1,3.299317E1,1.5697124E2,1.2246235E2,1.18431694E2,4.998295E0,2.3243475E1,8.996974E0,1.8489584E1,5.2481384E0,6.8487366E1,2.9739845E1,2.0996195E1,8.7445496E1,1.8496359E1,2.2495646E0,1.2995758E1,8.999202E0,5.5738384E1,9.697842E1,2.499474E0,1.249101E0,1.499392E0,1.9983393E0,5.2427716E0,2.495346E0,4.9691917E1,1.2490586E0,1.1991071E1,3.749404E0,4.348999E1,9.748381E0,1.1246273E1,4.498785E0,3.9989479E0,7.4970326E0,4.496884E1,4.9961777E0,2.724376E1,3.0702765E1,1.4983747E0,1.7494767E0,1.4998109E0,1.9994589E0,1.72465E1,2.2244993E1,1.07481785E1,1.54966135E1,1.4147462E2,9.272367E1,2.9738678E1,7.498435E0,1.1093326E2,3.4988184E0,1.4994766E0,3.2490048E0,1.999447E1],"tree_param":{"num_deleted":"0","num_feature":"12","num_nodes":"113","size_leaf_vector":"1"}},{"base_weights":[1.0630603E-2,-4.7151247E-1,2.7635062E-1,-6.9862354E-1,-3.8761746E-2,9.83353E-1,1.4207326E-1,-4.9137765E-1,-1.1759508E0,1.8523063E-1,-5.739321E-1,6.718799E-1,1.4532788E0,-1.8119226E-1,4.3239635E-1,-3.1660298E-1,-8.653956E-1,-1.4198246E0,-6.939377E-1,7.5902057E-1,-1.2603339E-2,-9.891578E-1,-7.238958E-2,4.5589647E-1,1.227834E0,1.5035144E0,6.282035E-1,-8.808281E-1,-7.6428704E-2,7.246534E-1,6.0900748E-2,-4.2455137E-1,5.657616E-1,-1.0126138E0,-1.0823209E-1,-1.4772199E0,2.0678844E-3,9.945598E-2,-1.0214627E0,7.327892E-2,9.2118E-1,-8.506769E-1,2.298506E-1,2.124554E-3,-1.0932462E0,-7.776431E-1,2.4442732E-1,1.0533786E0,2.0443563E-1,6.6936994E-1,1.4934933E0,8.22711E-1,1.5543766E0,-3.0509834E-4,1.16732055E-2,-1.1514791E0,-4.324061E-1,3.0266468E-3,-1.0457795E0,5.9625053E-1,1.3017167E0,2.622826E-1,-3.2307068E-1,-5.7416293E-3,-1.9271737E-3,-2.7631037E-3,1.1418311E-2,-1.1129211E-2,3.7588233E-3,1.7771799E-3,-1.1800852E-2,-1.5250454E-2,-6.2036817E-3,4.7164336E-3,-1.1681937E-2,-1.3118451E-2,-3.963234E-3,6.5323943E-3,-5.689884E-3,5.3709713E-3,1.2996321E-2,-6.3437806E-4,-1.1281631E-2,-1.1520121E-3,5.6494153E-3,-1.32736275E-2,-5.586495E-3,2.4837581E-3,-1.055966E-2,7.1547464E-3,-2.1388705E-3,-5.585358E-3,1.2825746E-2,5.6091486E-3,-6.4848724E-4,1.3992991E-2,1.3189398E-3,1.6140785E-2,1.8618224E-3,1.4291742E-2,-4.157364E-3,7.6045855E-3,1.6028624E-2,-4.4287313E-3,-1.27829155E-2,-9.448878E-3,1.1382656E-3,-1.4988073E-3,4.339359E-3,-1.4458177E-2,-2.401681E-3,-2.3986283E-3,7.1790656E-3,1.5465273E-2,7.3601445E-3,9.564023E-4,8.6325975E-3,-1.0046512E-2,-6.4721436E-4],"categories":[],"categories_nodes":[],"categories_segments":[],"categories_sizes":[],"default_left":[0,0,0,0,0,0,0,0,0,0,0,0,0,0,0,0,0,0,0,0,0,0,0,0,0,0,0,0,0,0,0,0,0,0,0,0,0,0,0,0,0,0,0,0,0,0,0,0,0,0,0,0,0,0,0,0,0,0,0,0,0,0,0,0,0,0,0,0,0,0,0,0,0,0,0,0,0,0,0,0,0,0,0,0,0,0,0,0,0,0,0,0,0,0,0,0,0,0,0,0,0,0,0,0,0,0,0,0,0,0,0,0,0,0,0,0,0,0,0],"id":8,"left_children":[1,3,5,7,9,11,13,15,17,19,21,23,25,27,29,31,33,35,37,39,41,43,45,47,49,51,53,55,57,59,61,63,65,67,69,71,-1,73,75,77,79,81,83,-1,85,87,89,91,93,95,97,99,101,-1,-1,103,105,107,109,111,113,115,117,-1,-1,-1,-1,-1,-1,-1,-1,-1,-1,-1,-1,-1,-1,-1,-1,-1,-1,-1,-1,-1,-1,-1,-1,-1,-1,-1,-1,-1,-1,-1,-1,-1,-1,-1,-1,-1,-1,-1,-1,-1,-1,-1,-1,-1,-1,-1,-1,-1,-1,-1,-1,-1,-1,-1,-1],"loss_changes":[1.54136E2,4.1986572E1,7.34924E1,2.7149643E1,1.7870235E1,1.711876E1,6.1361794E1,1.2613731E1,8.905006E0,1.1953743E1,9.084711E0,8.591038E0,1.0623627E0,2.2630188E1,3.7338966E1,1.3188734E1,6.8249435E0,5.4321976E0,7.955243E0,2.9341707E0,1.6294085E1,3.2308502E0,4.8806133E0,8.26979E0,2.076109E0,2.7674103E-1,1.6324446E0,4.3853188E0,2.0831875E1,1.3496216E1,1.1892049E1,4.1103745E0,7.711731E0,7.655731E0,3.6567554E0,1.2325668E0,0E0,5.1473975E0,3.3794918E0,2.6993344E0,2.4627113E0,3.858344E0,7.2611876E0,0E0,2.040224E0,2.1888041E0,3.44453E0,6.8076324E0,3.9710207E0,3.1482868E0,1.7861519E0,4.5352273E0,3.4681702E-1,0E0,0E0,1.634552E0,4.7952056E0,1.65994E1,6.2562637E0,1.6386578E1,3.5999565E0,1.0003984E1,9.264235E0,0E0,0E0,0E0,0E0,0E0,0E0,0E0,0E0,0E0,0E0,0E0,0E0,0E0,0E0,0E0,0E0,0E0,0E0,0E0,0E0,0E0,0E0,0E0,0E0,0E0,0E0,0E0,0E0,0E0,0E0,0E0,0E0,0E0,0E0,0E0,0E0,0E0,0E0,0E0,0E0,0E0,0E0,0E0,0E0,0E0,0E0,0E0,0E0,0E0,0E0,0E0,0E0,0E0,0E0,0E0,0E0],"parents":[2147483647,0,0,1,1,2,2,3,3,4,4,5,5,6,6,7,7,8,8,9,9,10,10,11,11,12,12,13,13,14,14,15,15,16,16,17,17,18,18,19,19,20,20,21,21,22,22,23,23,24,24,25,25,26,26,27,27,28,28,29,29,30,30,31,31,32,32,33,33,34,34,35,35,37,37,38,38,39,39,40,40,41,41,42,42,44,44,45,45,46,46,47,47,48,48,49,49,50,50,51,51,52,52,55,55,56,56,57,57,58,58,59,59,60,60,61,61,62,62],"right_children":[2,4,6,8,10,12,14,16,18,20,22,24,26,28,30,32,34,36,38,40,42,44,46,48,50,52,54,56,58,60,62,64,66,68,70,72,-1,74,76,78,80,82,84,-1,86,88,90,92,94,96,98,100,102,-1,-1,104,106,108,110,112,114,116,118,-1,-1,-1,-1,-1,-1,-1,-1,-1,-1,-1,-1,-1,-1,-1,-1,-1,-1,-1,-1,-1,-1,-1,-1,-1,-1,-1,-1,-1,-1,-1,-1,-1,-1,-1,-1,-1,-1,-1,-1,-1,-1,-1,-1,-1,-1,-1,-1,-1,-1,-1,-1,-1,-1,-1,-1],"split_conditions":[-3E-2,1E-1,-1.7E0,7.3E-1,1.72E0,-9E-2,3.2E-1,4E0,2E-2,-4E0,-8E-2,2.09E0,6E0,-1.84E0,6.5E-1,2.2E0,-4.1E-1,8E0,3.5E-1,-9E0,-1.5E-1,2.8E-1,-8E-2,-2.76E0,-1.79E0,-1.66E0,1E0,1.19E0,1.54E0,2.12E0,1.84E0,2E-2,-1E0,3.4E-1,1.5E-1,4E0,2.0678844E-3,-5E-2,-5.8E-1,7.9E-1,6.1E-1,0E0,-2.7E-1,2.124554E-3,1.3E-1,5.2E-1,1.29E0,-3E0,0E0,2.5E0,2.1E-1,2E0,-3E0,-3.0509834E-4,1.16732055E-2,-6.3E-1,-4E-2,1.02E0,-8E-2,-1.63E0,2E0,2.36E0,-1.97E0,-5.7416293E-3,-1.9271737E-3,-2.7631037E-3,1.1418311E-2,-1.1129211E-2,3.7588233E-3,1.7771799E-3,-1.1800852E-2,-1.5250454E-2,-6.2036817E-3,4.7164336E-3,-1.1681937E-2,-1.3118451E-2,-3.963234E-3,6.5323943E-3,-5.689884E-3,5.3709713E-3,1.2996321E-2,-6.3437806E-4,-1.1281631E-2,-1.1520121E-3,5.6494153E-3,-1.32736275E-2,-5.586495E-3,2.4837581E-3,-1.055966E-2,7.1547464E-3,-2.1388705E-3,-5.585358E-3,1.2825746E-2,5.6091486E-3,-6.4848724E-4,1.3992991E-2,1.3189398E-3,1.6140785E-2,1.8618224E-3,1.4291742E-2,-4.157364E-3,7.6045855E-3,1.6028624E-2,-4.4287313E-3,-1.27829155E-2,-9.448878E-3,1.1382656E-3,-1.4988073E-3,4.339359E-3,-1.4458177E-2,-2.401681E-3,-2.3986283E-3,7.1790656E-3,1.5465273E-2,7.3601445E-3,9.564023E-4,8.6325975E-3,-1.0046512E-2,-6.4721436E-4],"split_indices":[5,4,6,6,6,4,4,3,8,3,5,8,3,4,6,8,4,2,8,3,10,4,7,6,4,8,0,8,6,4,6,7,2,10,10,0,0,5,4,6,6,3,8,0,10,4,4,0,3,8,5,0,0,0,0,8,7,8,4,8,3,4,8,0,0,0,0,0,0,0,0,0,0,0,0,0,0,0,0,0,0,0,0,0,0,0,0,0,0,0,0,0,0,0,0,0,0,0,0,0,0,0,0,0,0,0,0,0,0,0,0,0,0,0,0,0,0,0,0],"split_type":[0,0,0,0,0,0,0,0,0,0,0,0,0,0,0,0,0,0,0,0,0,0,0,0,0,0,0,0,0,0,0,0,0,0,0,0,0,0,0,0,0,0,0,0,0,0,0,0,0,0,0,0,0,0,0,0,0,0,0,0,0,0,0,0,0,0,0,0,0,0,0,0,0,0,0,0,0,0,0,0,0,0,0,0,0,0,0,0,0,0,0,0,0,0,0,0,0,0,0,0,0,0,0,0,0,0,0,0,0,0,0,0,0,0,0,0,0,0,0],"sum_hessian":[1.2010889E3,4.2647858E2,7.746103E2,2.7929037E2,1.471882E2,1.2262694E2,6.519834E2,1.9615378E2,8.313657E1,1.0422101E2,4.2967197E1,7.5207886E1,4.741905E1,3.0866766E2,3.433157E2,1.3494289E2,6.1210903E1,5.39135E1,2.9223076E1,2.5993582E1,7.8227425E1,2.2974468E1,1.9992727E1,5.547597E1,1.9731916E1,4.39225E1,3.496548E0,3.9235558E1,2.694321E2,1.9161826E2,1.5169746E2,1.20695816E2,1.4247068E1,5.0964336E1,1.0246567E1,5.2164703E1,1.7487975E0,8.742253E0,2.0480822E1,5.2488947E0,2.0744686E1,1.699015E1,6.1237274E1,1.7484922E0,2.1225975E1,5.746383E0,1.4246345E1,1.5487633E1,3.998834E1,7.495235E0,1.2236682E1,4.2472515E0,3.967525E1,1.9983262E0,1.4982216E0,2.3490007E1,1.5745549E1,2.4994185E2,1.9490253E1,1.5840472E2,3.321353E1,9.9716156E1,5.1981304E1,7.245874E1,4.8237076E1,5.9987392E0,8.248329E0,4.7715736E1,3.2485971E0,8.74718E0,1.4993863E0,4.8668434E1,3.4962678E0,7.2434764E0,1.4987769E0,1.3234704E1,7.246118E0,2.7492597E0,2.4996352E0,1.1496416E1,9.248271E0,4.7481318E0,1.2242019E1,3.0493517E1,3.0743757E1,1.3730178E1,7.4957976E0,1.2491337E0,4.4972496E0,6.748873E0,7.497472E0,1.7491434E0,1.3738489E1,1.6742111E1,2.3246227E1,2.498558E0,4.996677E0,1.0988461E1,1.2482214E0,2.7477052E0,1.499546E0,3.243844E0,3.6431408E1,4.2475877E0,1.924242E1,7.7472057E0,7.998343E0,1.8496095E2,6.4980896E1,1.2492324E1,6.99793E0,1.9997185E1,1.3840753E2,2.1971455E1,1.1242078E1,7.8976295E1,2.0739859E1,1.3493592E1,3.8487713E1],"tree_param":{"num_deleted":"0","num_feature":"12","num_nodes":"119","size_leaf_vector":"1"}},{"base_weights":[-2.3149962E-3,-3.318107E-1,3.635388E-1,-2.0583664E-1,-9.8393506E-1,9.237651E-1,2.4317463E-1,-4.7172207E-1,2.4594548E-1,-1.4337049E0,-6.6433555E-1,5.976337E-1,1.2918792E0,-1.0946343E-1,5.161444E-1,-6.6696145E-2,-6.931428E-1,1.2349492E-1,1.0695823E0,-1.5409058E0,-7.6450115E-1,-9.216877E-1,-2.1405824E-1,2.0458208E-1,8.565735E-1,2.1358196E-1,1.4619428E0,3.4284073E-1,-2.8947243E-1,7.6358235E-1,1.6258894E-1,-5.832703E-1,1.6897546E-1,-4.1997042E-1,-8.745543E-1,4.0925458E-1,-2.3165318E-1,1.5790342E0,6.6854167E-1,-5.2924895E-1,-1.6278217E0,-1.4782186E-2,1.7044804E-1,4.651415E-3,-1.0193515E0,1.3893529E-2,-1.128865E0,-6.2257785E-2,7.209724E-1,1.1003215E0,8.481862E-2,-5.64565E-1,1.14284735E-2,3.5360742E-3,1.495951E0,8.155313E-1,-2.0460033E-1,-4.543927E-1,7.834011E-2,-2.4517806E-2,8.4749526E-1,-1.4894246E-1,6.1691105E-1,-9.59658E-3,-1.5073844E-3,-3.200411E-3,4.2369915E-3,-4.5782733E-3,9.265968E-3,-9.083702E-3,1.2051955E-2,1.5132919E-2,3.2265955E-3,1.7450114E-3,-6.320022E-3,6.411757E-3,1.7242571E-2,2.675011E-3,1.2134634E-2,7.139274E-3,-1.2849635E-2,-6.781975E-3,-1.7032431E-2,9.462645E-3,-7.5160232E-3,-1.1700613E-2,5.0568017E-3,-2.2047597E-3,1.0062262E-2,-2.0727427E-3,-1.3987555E-2,-3.8060488E-3,8.53511E-3,-1.4327602E-3,1.2011214E-2,8.02474E-3,1.5021988E-2,-1.0860947E-2,6.361707E-3,3.563088E-3,-1.0988171E-2,4.9212924E-3,1.5303502E-2,-1.07766315E-2,9.949952E-3,-1.2271767E-2,2.7613618E-4,-3.2736436E-3,-8.454297E-3,-1.043292E-2,2.4539833E-3,-5.621266E-3,9.654615E-3,8.8958945E-3,-5.486684E-3,3.3486353E-3,-5.149789E-3,6.9960225E-3,-9.150988E-3],"categories":[],"categories_nodes":[],"categories_segments":[],"categories_sizes":[],"default_left":[0,0,0,0,0,0,0,0,0,0,0,0,0,0,0,0,0,0,0,0,0,0,0,0,0,0,0,0,0,0,0,0,0,0,0,0,0,0,0,0,0,0,0,0,0,0,0,0,0,0,0,0,0,0,0,0,0,0,0,0,0,0,0,0,0,0,0,0,0,0,0,0,0,0,0,0,0,0,0,0,0,0,0,0,0,0,0,0,0,0,0,0,0,0,0,0,0,0,0,0,0,0,0,0,0,0,0,0,0,0,0,0,0,0,0,0,0,0,0],"id":9,"left_children":[1,3,5,7,9,11,13,15,17,19,21,23,25,27,29,31,33,35,37,39,41,43,45,47,49,51,53,55,57,59,61,63,65,67,69,71,73,75,77,79,81,-1,83,-1,85,87,89,91,93,95,97,99,-1,-1,101,103,105,107,109,111,113,115,117,-1,-1,-1,-1,-1,-1,-1,-1,-1,-1,-1,-1,-1,-1,-1,-1,-1,-1,-1,-1,-1,-1,-1,-1,-1,-1,-1,-1,-1,-1,-1,-1,-1,-1,-1,-1,-1,-1,-1,-1,-1,-1,-1,-1,-1,-1,-1,-1,-1,-1,-1,-1,-1,-1,-1,-1],"loss_changes":[1.4521979E2,5.18668E1,3.826805E1,6.407808E1,1.3760246E1,1.1305069E1,4.541843E1,3.0045647E1,1.9830242E1,1.8102036E0,6.952261E0,5.4429836E0,8.195892E0,1.690755E1,2.312915E1,1.4671773E1,1.0378441E1,1.7697115E1,4.1517086E0,2.2087784E0,5.4140964E0,5.7505875E0,4.966426E0,3.2468178E0,6.1077156E0,6.0624638E0,9.751358E-1,1.5493443E1,9.026223E0,1.0343796E1,1.5760695E1,5.997345E0,1.0471745E1,4.933509E0,1.0193863E1,8.734888E0,1.2788727E1,3.23452E-1,3.1709514E0,4.9049015E0,1.1134033E0,0E0,3.7482455E0,0E0,9.028404E0,4.8716865E0,8.9100885E-1,5.0596204E0,3.4902573E0,1.783205E0,6.49853E0,2.7267957E0,0E0,0E0,5.730896E-1,1.193944E1,6.7405396E0,4.813593E0,9.013346E0,9.054534E0,8.780861E0,1.1945217E1,6.369732E0,0E0,0E0,0E0,0E0,0E0,0E0,0E0,0E0,0E0,0E0,0E0,0E0,0E0,0E0,0E0,0E0,0E0,0E0,0E0,0E0,0E0,0E0,0E0,0E0,0E0,0E0,0E0,0E0,0E0,0E0,0E0,0E0,0E0,0E0,0E0,0E0,0E0,0E0,0E0,0E0,0E0,0E0,0E0,0E0,0E0,0E0,0E0,0E0,0E0,0E0,0E0,0E0,0E0,0E0,0E0,0E0],"parents":[2147483647,0,0,1,1,2,2,3,3,4,4,5,5,6,6,7,7,8,8,9,9,10,10,11,11,12,12,13,13,14,14,15,15,16,16,17,17,18,18,19,19,20,20,21,21,22,22,23,23,24,24,25,25,26,26,27,27,28,28,29,29,30,30,31,31,32,32,33,33,34,34,35,35,36,36,37,37,38,38,39,39,40,40,42,42,44,44,45,45,46,46,47,47,48,48,49,49,50,50,51,51,54,54,55,55,56,56,57,57,58,58,59,59,60,60,61,61,62,62],"right_children":[2,4,6,8,10,12,14,16,18,20,22,24,26,28,30,32,34,36,38,40,42,44,46,48,50,52,54,56,58,60,62,64,66,68,70,72,74,76,78,80,82,-1,84,-1,86,88,90,92,94,96,98,100,-1,-1,102,104,106,108,110,112,114,116,118,-1,-1,-1,-1,-1,-1,-1,-1,-1,-1,-1,-1,-1,-1,-1,-1,-1,-1,-1,-1,-1,-1,-1,-1,-1,-1,-1,-1,-1,-1,-1,-1,-1,-1,-1,-1,-1,-1,-1,-1,-1,-1,-1,-1,-1,-1,-1,-1,-1,-1,-1,-1,-1,-1,-1,-1],"split_conditions":[1E-2,1.72E0,-1.67E0,-4E-2,2E-1,-9E-2,3.2E-1,-7.7E-1,1.89E0,5E-1,1.4E-1,-8E-2,-5E-1,-2E0,6.7E-1,-1.9E-1,0E0,1E0,5.4E-1,1.78E0,-1.1E-1,-9E0,5E0,-1.98E0,-2.01E0,1.1E-1,2E-2,-1.9E-1,1E-1,-2.8E-1,1.99E0,3E-1,-1.99E0,2E0,8E0,-1.46E0,4.7E-1,-8E-1,1.36E0,-2.2E-1,-2.4E-1,-1.4782186E-2,-3E-2,4.651415E-3,0E0,3E0,2.6E-1,1.1E-1,8E-2,1.1E-1,-1.91E0,-4E0,1.14284735E-2,3.5360742E-3,-6E-2,-1.79E0,-1.03E0,4E-2,-8E-1,-0E0,9E0,-1E0,8E0,-9.59658E-3,-1.5073844E-3,-3.200411E-3,4.2369915E-3,-4.5782733E-3,9.265968E-3,-9.083702E-3,1.2051955E-2,1.5132919E-2,3.2265955E-3,1.7450114E-3,-6.320022E-3,6.411757E-3,1.7242571E-2,2.675011E-3,1.2134634E-2,7.139274E-3,-1.2849635E-2,-6.781975E-3,-1.7032431E-2,9.462645E-3,-7.5160232E-3,-1.1700613E-2,5.0568017E-3,-2.2047597E-3,1.0062262E-2,-2.0727427E-3,-1.3987555E-2,-3.8060488E-3,8.53511E-3,-1.4327602E-3,1.2011214E-2,8.02474E-3,1.5021988E-2,-1.0860947E-2,6.361707E-3,3.563088E-3,-1.0988171E-2,4.9212924E-3,1.5303502E-2,-1.07766315E-2,9.949952E-3,-1.2271767E-2,2.7613618E-4,-3.2736436E-3,-8.454297E-3,-1.043292E-2,2.4539833E-3,-5.621266E-3,9.654615E-3,8.8958945E-3,-5.486684E-3,3.3486353E-3,-5.149789E-3,6.9960225E-3,-9.150988E-3],"split_indices":[5,6,6,4,4,4,4,6,4,11,10,10,11,3,6,10,3,3,6,6,10,3,3,6,6,7,5,6,10,9,4,11,4,11,2,6,6,11,6,9,5,0,10,0,5,3,10,7,5,5,6,3,0,0,7,4,4,7,11,11,3,3,3,0,0,0,0,0,0,0,0,0,0,0,0,0,0,0,0,0,0,0,0,0,0,0,0,0,0,0,0,0,0,0,0,0,0,0,0,0,0,0,0,0,0,0,0,0,0,0,0,0,0,0,0,0,0,0,0],"split_type":[0,0,0,0,0,0,0,0,0,0,0,0,0,0,0,0,0,0,0,0,0,0,0,0,0,0,0,0,0,0,0,0,0,0,0,0,0,0,0,0,0,0,0,0,0,0,0,0,0,0,0,0,0,0,0,0,0,0,0,0,0,0,0,0,0,0,0,0,0,0,0,0,0,0,0,0,0,0,0,0,0,0,0,0,0,0,0,0,0,0,0,0,0,0,0,0,0,0,0,0,0,0,0,0,0,0,0,0,0,0,0,0,0,0,0,0,0,0,0],"sum_hessian":[1.2026704E3,6.328265E2,5.69844E2,5.3147455E2,1.0135193E2,9.959791E1,4.7024606E2,3.3454315E2,1.969314E2,4.0653973E1,6.0697956E1,5.4201485E1,4.5396423E1,2.0544255E2,2.648035E2,1.1870587E2,2.1583728E2,1.7244398E2,2.448741E1,3.3917995E1,6.735978E0,3.795701E1,2.2740946E1,2.223717E1,3.1964315E1,6.4916525E0,3.890477E1,5.8228546E1,1.47214E2,1.5509772E2,1.09705795E2,3.6727364E1,8.19785E1,8.745747E1,1.283798E2,9.547247E1,7.697152E1,9.492065E0,1.4995344E1,3.2443721E0,3.0673624E1,3.4904134E0,3.2455647E0,2.2496204E0,3.570739E1,1.8993063E1,3.747883E0,1.5240975E1,6.996194E0,2.396847E1,7.9958463E0,3.7467039E0,2.7449489E0,1.4975344E0,3.7407234E1,3.098483E1,2.7243715E1,1.0147784E2,4.5736168E1,1.4993006E1,1.401047E2,6.5478775E1,4.4227024E1,1.8986597E1,1.7740767E1,2.7989004E1,5.3989502E1,8.570792E1,1.7495598E0,1.2688002E2,1.4997877E0,5.74547E0,8.9727005E1,3.848877E1,3.848275E1,1.998802E0,7.4932632E0,9.496902E0,5.498441E0,1.247495E0,1.9968771E0,2.9921281E0,2.7681496E1,1.7482878E0,1.4972769E0,3.2707832E1,2.9995587E0,1.5993526E1,2.999536E0,1.2494389E0,2.4984443E0,1.1743122E1,3.497853E0,2.749253E0,4.246941E0,1.548714E1,8.48133E0,2.2492375E0,5.7466087E0,1.4978962E0,2.2488077E0,1.7465506E0,3.5660686E1,2.2495077E0,2.8735323E1,4.2488437E0,2.2994871E1,7.798242E1,2.3495419E1,5.249025E0,4.048714E1,9.996555E0,4.9964514E0,1.3635641E2,3.7482948E0,2.8239107E1,3.7239666E1,4.247761E1,1.7494118E0],"tree_param":{"num_deleted":"0","num_feature":"12","num_nodes":"119","size_leaf_vector":"1"}},{"base_weights":[5.4015866E-3,-3.1196183E-1,3.4772474E-1,-1.9751082E-1,-9.8325825E-1,7.387113E-1,1.3978508E-1,-3.7784334E-2,-5.939456E-1,-1.4673154E0,-7.629913E-1,1.0709702E0,3.582879E-1,-1.2013108E-1,3.7438452E-1,-1.9360888E-1,3.674503E-1,-6.8071234E-1,3.8424855E-1,-5.424709E-1,-1.6404285E0,-1.3808298E0,-5.615691E-1,1.7675817E-1,1.1526271E0,4.402378E-1,-9.75953E-1,-2.8774536E-1,3.1959245E-1,-1.6857296E-1,5.4903513E-1,-6.5076816E-1,-2.4029534E-2,1.2911909E0,2.6234326E-1,1.9863756E-1,-7.7444005E-1,-1.7530753E-1,1.0164495E0,5.820681E-2,-1.2186115E-2,-9.1717035E-1,-1.7484587E-2,-1.6567599E-2,-9.7441506E-1,-8.3045876E-1,7.14477E-2,8.2768804E-1,-4.4817042E-1,-4.7944576E-2,1.1916679E0,-7.313034E-1,5.001848E-1,-1.3009132E-2,-3.2838996E-4,-7.2613394E-1,-1.864937E-1,1.2276308E-1,1.0667669E0,-4.6801472E-1,5.5353487E-1,7.087392E-1,-6.521948E-2,-9.624204E-3,-2.6113298E-3,3.359259E-3,-1.8856362E-3,3.0436134E-3,1.487522E-2,-7.6877563E-3,3.2461653E-3,-3.8956394E-3,8.632419E-3,-8.054824E-3,9.143074E-3,-7.062171E-3,4.9870545E-3,-2.2155228E-3,1.3702937E-2,-6.2012547E-3,5.9195044E-3,-1.3059276E-2,-1.2410288E-3,5.496092E-4,-1.2028242E-2,-5.3777117E-3,-1.40072005E-2,-5.493367E-3,4.5754034E-3,1.1751669E-2,3.7516935E-3,1.5792245E-3,-7.526968E-3,-8.395048E-3,7.6280176E-3,1.381944E-2,9.464097E-3,-1.05426675E-2,-1.89077E-4,3.8734463E-3,1.1758866E-2,-1.0158245E-2,2.5923199E-3,-9.033625E-3,-1.0922134E-3,-1.9347663E-3,5.4947347E-3,1.2886278E-2,2.710783E-3,-5.58363E-3,1.0949054E-2,8.321853E-3,-1.0905366E-3,5.491293E-3,1.350228E-2,-8.520588E-3,1.8136017E-3],"categories":[],"categories_nodes":[],"categories_segments":[],"categories_sizes":[],"default_left":[0,0,0,0,0,0,0,0,0,0,0,0,0,0,0,0,0,0,0,0,0,0,0,0,0,0,0,0,0,0,0,0,0,0,0,0,0,0,0,0,0,0,0,0,0,0,0,0,0,0,0,0,0,0,0,0,0,0,0,0,0,0,0,0,0,0,0,0,0,0,0,0,0,0,0,0,0,0,0,0,0,0,0,0,0,0,0,0,0,0,0,0,0,0,0,0,0,0,0,0,0,0,0,0,0,0,0,0,0,0,0,0,0,0,0,0,0],"id":10,"left_children":[1,3,5,7,9,11,13,15,17,19,21,23,25,27,29,31,33,35,37,39,41,43,45,47,49,51,53,55,57,59,61,63,65,67,69,71,73,75,77,79,-1,81,-1,-1,83,85,87,89,91,93,95,97,99,-1,-1,101,103,105,107,109,111,113,115,-1,-1,-1,-1,-1,-1,-1,-1,-1,-1,-1,-1,-1,-1,-1,-1,-1,-1,-1,-1,-1,-1,-1,-1,-1,-1,-1,-1,-1,-1,-1,-1,-1,-1,-1,-1,-1,-1,-1,-1,-1,-1,-1,-1,-1,-1,-1,-1,-1,-1,-1,-1,-1,-1],"loss_changes":[1.2911797E2,4.718988E1,4.6381035E1,3.3420834E1,8.431793E0,2.4677612E1,2.2879322E1,2.3911003E1,1.3129822E1,3.421997E0,7.1455154E0,7.4875183E0,1.070099E1,1.3241571E1,1.8780142E1,2.1174873E1,9.8752985E0,1.1661476E1,4.7740874E0,2.4023495E0,1.3027191E-1,6.364441E-2,8.516503E0,4.4367495E0,4.5726166E0,6.6297684E0,1.7185135E0,5.6216106E0,7.1799874E0,1.0795352E1,1.4696434E1,8.724846E0,1.1933122E1,1.5800762E0,6.395062E0,5.904756E0,7.3615646E0,3.123593E0,3.040182E0,1.8132218E0,0E0,1.375545E0,0E0,0E0,2.0596762E0,5.080553E0,4.022464E0,3.841412E-1,1.1797956E0,3.2044532E0,3.0480957E0,1.0724506E0,6.0593166E0,0E0,0E0,7.1111994E0,5.812416E0,5.568374E0,1.4575157E0,5.5516324E0,2.8124614E0,1.1402714E1,6.311093E0,0E0,0E0,0E0,0E0,0E0,0E0,0E0,0E0,0E0,0E0,0E0,0E0,0E0,0E0,0E0,0E0,0E0,0E0,0E0,0E0,0E0,0E0,0E0,0E0,0E0,0E0,0E0,0E0,0E0,0E0,0E0,0E0,0E0,0E0,0E0,0E0,0E0,0E0,0E0,0E0,0E0,0E0,0E0,0E0,0E0,0E0,0E0,0E0,0E0,0E0,0E0,0E0,0E0,0E0],"parents":[2147483647,0,0,1,1,2,2,3,3,4,4,5,5,6,6,7,7,8,8,9,9,10,10,11,11,12,12,13,13,14,14,15,15,16,16,17,17,18,18,19,19,20,20,21,21,22,22,23,23,24,24,25,25,26,26,27,27,28,28,29,29,30,30,31,31,32,32,33,33,34,34,35,35,36,36,37,37,38,38,39,39,41,41,44,44,45,45,46,46,47,47,48,48,49,49,50,50,51,51,52,52,55,55,56,56,57,57,58,58,59,59,60,60,61,61,62,62],"right_children":[2,4,6,8,10,12,14,16,18,20,22,24,26,28,30,32,34,36,38,40,42,44,46,48,50,52,54,56,58,60,62,64,66,68,70,72,74,76,78,80,-1,82,-1,-1,84,86,88,90,92,94,96,98,100,-1,-1,102,104,106,108,110,112,114,116,-1,-1,-1,-1,-1,-1,-1,-1,-1,-1,-1,-1,-1,-1,-1,-1,-1,-1,-1,-1,-1,-1,-1,-1,-1,-1,-1,-1,-1,-1,-1,-1,-1,-1,-1,-1,-1,-1,-1,-1,-1,-1,-1,-1,-1,-1,-1,-1,-1,-1,-1,-1,-1,-1],"split_conditions":[1E-2,1.81E0,-2E0,4E0,-1E-1,-1.8E-1,2E-2,5E-2,1.4E-1,2.03E0,-2.18E0,-1.39E0,2.31E0,7E-2,-4E-2,-9E-2,-7E0,-1.91E0,-4E-2,3E0,-2.09E0,-3E-1,2E0,-1.97E0,-3E0,-2.79E0,1.1E-1,-2.18E0,1.3E-1,7E-1,6E0,1E-1,-3E0,-6E-1,-1.6E0,-6E-2,9E0,-3.1E-1,-1.2E0,0E0,-1.2186115E-2,-5E-1,-1.7484587E-2,-1.6567599E-2,-1E0,4E0,-8E-2,-5E-1,-1.48E0,5.6E-1,-1.2E0,3E-2,1.3E-1,-1.3009132E-2,-3.2838996E-4,4E-1,-4E0,-1E-1,6E0,6E0,2E0,1.4E-1,-3E-1,-9.624204E-3,-2.6113298E-3,3.359259E-3,-1.8856362E-3,3.0436134E-3,1.487522E-2,-7.6877563E-3,3.2461653E-3,-3.8956394E-3,8.632419E-3,-8.054824E-3,9.143074E-3,-7.062171E-3,4.9870545E-3,-2.2155228E-3,1.3702937E-2,-6.2012547E-3,5.9195044E-3,-1.3059276E-2,-1.2410288E-3,5.496092E-4,-1.2028242E-2,-5.3777117E-3,-1.40072005E-2,-5.493367E-3,4.5754034E-3,1.1751669E-2,3.7516935E-3,1.5792245E-3,-7.526968E-3,-8.395048E-3,7.6280176E-3,1.381944E-2,9.464097E-3,-1.05426675E-2,-1.89077E-4,3.8734463E-3,1.1758866E-2,-1.0158245E-2,2.5923199E-3,-9.033625E-3,-1.0922134E-3,-1.9347663E-3,5.4947347E-3,1.2886278E-2,2.710783E-3,-5.58363E-3,1.0949054E-2,8.321853E-3,-1.0905366E-3,5.491293E-3,1.350228E-2,-8.520588E-3,1.8136017E-3],"split_indices":[5,6,3,3,7,6,8,7,7,6,8,8,8,7,7,5,3,6,5,2,8,11,0,8,0,8,5,8,5,11,3,11,3,11,11,5,2,8,11,2,0,11,0,0,0,3,5,11,6,8,6,7,5,0,0,11,2,11,3,2,2,5,11,0,0,0,0,0,0,0,0,0,0,0,0,0,0,0,0,0,0,0,0,0,0,0,0,0,0,0,0,0,0,0,0,0,0,0,0,0,0,0,0,0,0,0,0,0,0,0,0,0,0,0,0,0,0],"split_type":[0,0,0,0,0,0,0,0,0,0,0,0,0,0,0,0,0,0,0,0,0,0,0,0,0,0,0,0,0,0,0,0,0,0,0,0,0,0,0,0,0,0,0,0,0,0,0,0,0,0,0,0,0,0,0,0,0,0,0,0,0,0,0,0,0,0,0,0,0,0,0,0,0,0,0,0,0,0,0,0,0,0,0,0,0,0,0,0,0,0,0,0,0,0,0,0,0,0,0,0,0,0,0,0,0,0,0,0,0,0,0,0,0,0,0,0,0],"sum_hessian":[1.1864861E3,6.1573486E2,5.707512E2,5.271534E2,8.8581474E1,1.9727147E2,3.7347974E2,3.7653857E2,1.5061484E2,2.5931986E1,6.264949E1,1.04332794E2,9.293867E1,1.7741121E2,1.9606854E2,2.7233865E2,1.0419993E2,1.3862297E2,1.1991866E1,4.7403927E0,2.1191593E1,1.3963309E1,4.868618E1,8.994978E0,9.5337814E1,8.819192E1,4.7467556E0,1.2869914E2,4.8712055E1,4.7727406E1,1.4834114E2,7.292007E1,1.9941858E2,9.492233E0,9.4707695E1,1.3244475E1,1.25378494E2,6.7447996E0,5.2470665E0,2.994244E0,1.7461483E0,3.987222E0,1.7204372E1,6.484331E0,7.478978E0,3.395222E1,1.4733959E1,4.2469125E0,4.7480655E0,2.9954176E0,9.23424E1,3.7478905E0,8.444402E1,3.2481794E0,1.4985763E0,2.2989614E1,1.0570953E2,3.9476894E1,9.23516E0,3.3986042E1,1.37413645E1,1.17609314E2,3.0731829E1,3.9697617E1,3.322245E1,6.2231483E1,1.371871E2,1.9983025E0,7.4939303E0,4.747847E0,8.9959854E1,7.245637E0,5.998839E0,1.2362899E2,1.7495029E0,3.746198E0,2.9986017E0,1.2494528E0,3.9976134E0,1.2472626E0,1.7469815E0,2.2416823E0,1.7455395E0,1.496055E0,5.9829235E0,2.3720606E1,1.0231615E1,5.4876895E0,9.246269E0,1.4989533E0,2.7479591E0,1.7488265E0,2.9992387E0,1.4976943E0,1.4977233E0,4.939001E1,4.295239E1,2.2486012E0,1.4992893E0,7.370822E1,1.0735803E1,1.7742527E1,5.2470875E0,9.245627E0,9.6463905E1,2.2987324E1,1.648957E1,6.7371383E0,2.498022E0,3.273638E1,1.2496595E0,9.493096E0,4.2482677E0,9.5663216E1,2.19461E1,6.74689E0,2.398494E1],"tree_param":{"num_deleted":"0","num_feature":"12","num_nodes":"117","size_leaf_vector":"1"}},{"base_weights":[7.346996E-3,-3.130366E-1,3.5709476E-1,-1.7726153E-1,-9.52013E-1,8.5455793E-1,1.8568031E-1,-4.6856177E-1,2.0469137E-1,-1.4634254E0,-5.90845E-1,1.0854917E0,4.560534E-1,-1.0570797E-2,5.967794E-1,3.8683763E-1,-5.8369553E-1,1.2032807E0,1.05951436E-1,-3.3612896E-3,-1.4949154E0,-8.8890827E-1,-2.0869039E-2,-9.11334E-2,1.1877044E0,1.0539773E-1,1.0699571E0,-3.0287516E-1,2.3501372E-1,9.6688557E-1,3.6751944E-1,-3.1804216E-1,5.887254E-1,-8.2443833E-1,-3.4230074E-1,7.3864734E-1,1.4514859E0,-1.6322717E-1,3.7735832E-1,-4.6860343E-3,-1.527042E-2,-1.0317321E0,1.1551319E-1,-5.0937116E-1,6.055807E-1,6.2120086E-1,-7.4633783E-1,6.148604E-1,1.2929157E0,-5.8110595E-1,4.276031E-1,5.2427907E-2,1.3840063E0,-6.768097E-1,-2.1540482E-2,-5.1874787E-1,3.7111968E-1,1.44643355E-2,7.523099E-1,-2.532696E-1,5.49071E-1,6.9835484E-3,-5.8959774E-3,-1.1065664E-2,7.104644E-3,-5.9084934E-3,-1.2523274E-2,1.3220414E-3,-5.369859E-3,1.0403353E-2,-3.2660557E-4,3.6558884E-3,1.5717296E-2,-3.348333E-3,7.59309E-3,-2.459425E-3,5.7494715E-3,-1.1359006E-2,-6.974737E-4,-1.0677905E-2,6.246274E-3,-9.537798E-3,9.2472276E-4,1.082434E-2,8.9023344E-4,1.1002214E-3,1.08289085E-2,2.2045134E-3,-1.1544779E-2,1.4297594E-2,3.1506177E-3,9.160482E-3,1.3955749E-2,-9.667626E-3,7.5473287E-3,1.1289235E-2,-1.0589709E-3,-5.134359E-3,8.5738385E-3,1.5718829E-2,5.282788E-3,-1.0775695E-2,-4.0186974E-3,-4.559256E-3,2.2806716E-3,-9.14949E-3,2.0306802E-3,6.491445E-3,1.2322079E-4,1.6004864E-4,9.88903E-3,3.707187E-3,-5.751615E-3,4.6770013E-4,8.179279E-3],"categories":[],"categories_nodes":[],"categories_segments":[],"categories_sizes":[],"default_left":[0,0,0,0,0,0,0,0,0,0,0,0,0,0,0,0,0,0,0,0,0,0,0,0,0,0,0,0,0,0,0,0,0,0,0,0,0,0,0,0,0,0,0,0,0,0,0,0,0,0,0,0,0,0,0,0,0,0,0,0,0,0,0,0,0,0,0,0,0,0,0,0,0,0,0,0,0,0,0,0,0,0,0,0,0,0,0,0,0,0,0,0,0,0,0,0,0,0,0,0,0,0,0,0,0,0,0,0,0,0,0,0,0,0,0],"id":11,"left_children":[1,3,5,7,9,11,13,15,17,19,21,23,25,27,29,31,33,35,37,-1,39,41,43,45,47,49,51,53,55,57,59,61,63,65,67,69,71,73,75,-1,-1,77,79,81,83,85,87,89,91,93,95,97,99,101,103,105,107,-1,109,111,113,-1,-1,-1,-1,-1,-1,-1,-1,-1,-1,-1,-1,-1,-1,-1,-1,-1,-1,-1,-1,-1,-1,-1,-1,-1,-1,-1,-1,-1,-1,-1,-1,-1,-1,-1,-1,-1,-1,-1,-1,-1,-1,-1,-1,-1,-1,-1,-1,-1,-1,-1,-1,-1,-1],"loss_changes":[1.3351523E2,5.3784046E1,4.8416763E1,5.7299255E1,1.9223251E1,1.2914177E1,3.4290115E1,2.8981651E1,2.1874893E1,1.071434E0,1.10952835E1,1.1115562E1,1.1766419E1,2.078953E1,1.1296982E1,5.201976E0,1.4696243E1,1.2323475E0,1.4977174E1,0E0,6.970444E-1,6.2778816E0,7.4960213E0,4.3112893E0,4.2845993E0,8.262625E0,6.303171E0,1.389403E1,1.6340899E1,4.2538795E0,9.87821E0,2.7564535E0,6.5120516E0,1.2087212E1,1.2117845E1,2.126832E0,9.9077225E-1,1.659225E1,1.26989E1,0E0,0E0,3.6973572E0,4.42855E0,3.7630649E0,2.5509632E0,9.41833E-1,2.1281674E0,3.2102885E0,1.4412766E0,6.9101896E0,9.561009E0,3.057027E0,1.6144485E0,5.8178043E0,8.396352E0,7.1901903E0,1.3350401E1,0E0,6.595312E0,4.2780714E0,9.033535E0,0E0,0E0,0E0,0E0,0E0,0E0,0E0,0E0,0E0,0E0,0E0,0E0,0E0,0E0,0E0,0E0,0E0,0E0,0E0,0E0,0E0,0E0,0E0,0E0,0E0,0E0,0E0,0E0,0E0,0E0,0E0,0E0,0E0,0E0,0E0,0E0,0E0,0E0,0E0,0E0,0E0,0E0,0E0,0E0,0E0,0E0,0E0,0E0,0E0,0E0,0E0,0E0,0E0,0E0],"parents":[2147483647,0,0,1,1,2,2,3,3,4,4,5,5,6,6,7,7,8,8,9,9,10,10,11,11,12,12,13,13,14,14,15,15,16,16,17,17,18,18,20,20,21,21,22,22,23,23,24,24,25,25,26,26,27,27,28,28,29,29,30,30,31,31,32,32,33,33,34,34,35,35,36,36,37,37,38,38,41,41,42,42,43,43,44,44,45,45,46,46,47,47,48,48,49,49,50,50,51,51,52,52,53,53,54,54,55,55,56,56,58,58,59,59,60,60],"right_children":[2,4,6,8,10,12,14,16,18,20,22,24,26,28,30,32,34,36,38,-1,40,42,44,46,48,50,52,54,56,58,60,62,64,66,68,70,72,74,76,-1,-1,78,80,82,84,86,88,90,92,94,96,98,100,102,104,106,108,-1,110,112,114,-1,-1,-1,-1,-1,-1,-1,-1,-1,-1,-1,-1,-1,-1,-1,-1,-1,-1,-1,-1,-1,-1,-1,-1,-1,-1,-1,-1,-1,-1,-1,-1,-1,-1,-1,-1,-1,-1,-1,-1,-1,-1,-1,-1,-1,-1,-1,-1,-1,-1,-1,-1,-1,-1],"split_conditions":[1E-2,1.68E0,-1.24E0,-3.1E-1,1E-1,1E0,1.4E-1,-2.01E0,-1.28E0,-2.9E-1,1.4E-1,-1.45E0,1E-1,3.2E-1,-2E0,-1E-1,-6E-2,-1E-1,-3.5E-1,-3.3612896E-3,-4E0,5E-1,-7.7E-1,1E0,-1.59E0,-1.6E-1,-3E-1,1E-1,-1.94E0,-3.7E-1,-6E-1,-4.4E-1,-9E-1,4E0,-7.7E-1,8E-1,-3.2E-1,1.8E0,-1E-1,-4.6860343E-3,-1.527042E-2,8E0,0E0,-3E-1,3E-1,0E0,-2.9E-1,4E-2,-1E-1,1.8E-1,-2.07E0,1.18E0,7E0,-7.1E-1,-9E-2,1.68E0,6.5E-1,1.44643355E-2,7.2E-1,2.6E-1,-1.1E-1,6.9835484E-3,-5.8959774E-3,-1.1065664E-2,7.104644E-3,-5.9084934E-3,-1.2523274E-2,1.3220414E-3,-5.369859E-3,1.0403353E-2,-3.2660557E-4,3.6558884E-3,1.5717296E-2,-3.348333E-3,7.59309E-3,-2.459425E-3,5.7494715E-3,-1.1359006E-2,-6.974737E-4,-1.0677905E-2,6.246274E-3,-9.537798E-3,9.2472276E-4,1.082434E-2,8.9023344E-4,1.1002214E-3,1.08289085E-2,2.2045134E-3,-1.1544779E-2,1.4297594E-2,3.1506177E-3,9.160482E-3,1.3955749E-2,-9.667626E-3,7.5473287E-3,1.1289235E-2,-1.0589709E-3,-5.134359E-3,8.5738385E-3,1.5718829E-2,5.282788E-3,-1.0775695E-2,-4.0186974E-3,-4.559256E-3,2.2806716E-3,-9.14949E-3,2.0306802E-3,6.491445E-3,1.2322079E-4,1.6004864E-4,9.88903E-3,3.707187E-3,-5.751615E-3,4.6770013E-4,8.179279E-3],"split_indices":[5,6,6,4,4,3,10,6,6,5,10,8,4,4,3,5,10,11,8,0,0,11,8,0,4,10,11,11,8,6,11,10,11,3,6,4,9,4,10,0,0,3,0,11,10,0,10,5,11,9,6,4,3,4,8,4,6,0,4,10,8,0,0,0,0,0,0,0,0,0,0,0,0,0,0,0,0,0,0,0,0,0,0,0,0,0,0,0,0,0,0,0,0,0,0,0,0,0,0,0,0,0,0,0,0,0,0,0,0,0,0,0,0,0,0],"split_type":[0,0,0,0,0,0,0,0,0,0,0,0,0,0,0,0,0,0,0,0,0,0,0,0,0,0,0,0,0,0,0,0,0,0,0,0,0,0,0,0,0,0,0,0,0,0,0,0,0,0,0,0,0,0,0,0,0,0,0,0,0,0,0,0,0,0,0,0,0,0,0,0,0,0,0,0,0,0,0,0,0,0,0,0,0,0,0,0,0,0,0,0,0,0,0,0,0,0,0,0,0,0,0,0,0,0,0,0,0,0,0,0,0,0,0],"sum_hessian":[1.1895342E3,6.208837E2,5.6865045E2,5.131275E2,1.07756195E2,1.4470773E2,4.2394275E2,2.909811E2,2.2214641E2,4.3337936E1,6.441825E1,9.052468E1,5.418305E1,2.8761496E2,1.3632779E2,3.4238956E1,2.5674216E2,1.8982618E1,2.031638E2,1.4949505E0,4.1842987E1,4.19312E1,2.2487055E1,7.2439704E0,8.328071E1,3.5231087E1,1.895196E1,1.3121016E2,1.5640479E2,5.091525E1,8.5412544E1,7.495053E0,2.6743902E1,1.27335365E2,1.2940678E2,7.9940066E0,1.098861E1,1.0220073E2,1.00963066E2,1.743141E0,4.0099846E1,3.668726E1,5.24394E0,1.2739643E1,9.747413E0,3.4955392E0,3.7484314E0,1.3984309E1,6.92964E1,1.0996972E1,2.4234116E1,4.7449875E0,1.4206971E1,5.573052E1,7.5479645E1,2.3492235E1,1.3291255E2,1.3964825E1,3.695042E1,1.9237545E1,6.6174995E1,1.2489003E0,6.2461524E0,1.2498143E0,2.549409E1,8.390928E1,4.3426083E1,3.774123E1,9.166555E1,5.4956536E0,2.4983532E0,1.4982868E0,9.490324E0,8.670862E1,1.5492108E1,2.4242994E1,7.672007E1,3.2939606E1,3.7476554E0,1.2473799E0,3.9965599E0,6.9919415E0,5.7477016E0,4.498865E0,5.248547E0,2.2465186E0,1.2490206E0,1.2492089E0,2.4992225E0,2.747396E0,1.1236913E1,1.6959694E1,5.2336708E1,8.747777E0,2.249195E0,9.988076E0,1.4246039E1,2.9989545E0,1.7460332E0,1.0963104E1,3.243867E0,2.1488714E1,3.4241802E1,2.7242947E1,4.82367E1,1.4994348E1,8.497887E0,7.442947E1,5.8483086E1,9.245381E0,2.7705042E1,6.4950957E0,1.2742449E1,2.3480577E1,4.269442E1],"tree_param":{"num_deleted":"0","num_feature":"12","num_nodes":"115","size_leaf_vector":"1"}},{"base_weights":[-1.9130006E-2,-3.4981778E-1,3.3980048E-1,-5.959033E-1,1.9509838E-3,5.022595E-2,6.034349E-1,-4.355195E-1,-1.3370055E0,2.427346E-1,-7.129303E-1,4.7469988E-1,-2.6328707E-1,1.1160651E0,4.0277115E-1,-1.4123605E-1,-6.3498247E-1,-1.3816913E0,4.4848103E-4,1.1439179E0,1.5927874E-1,-1.1752384E0,-5.1556796E-1,8.456221E-1,1.0405356E-1,-9.1999644E-1,-1.8195775E-1,3.1918176E-2,1.210306E0,1.3689445E-1,7.1610564E-1,-4.378933E-1,3.239784E-1,-8.8778126E-1,-3.439691E-1,-6.609692E-1,-1.4493675E0,1.2526828E-3,1.2987389E-2,6.359871E-2,7.6446164E-1,-4.988048E-1,-1.4014212E0,-1.0831333E0,-3.1509203E-1,5.9343413E-2,9.875496E-1,-9.551891E-2,8.862248E-1,-8.36049E-2,-1.1081429E0,-8.401565E-2,-8.142326E-1,8.038812E-1,-4.8836043E-1,9.6741307E-1,1.5346127E0,-1.3032849E-1,5.115664E-1,8.4780425E-1,2.5638856E-2,-5.687444E-3,3.258937E-3,-2.2296624E-3,4.988186E-3,-9.282774E-3,2.7477236E-3,-1.1760237E-2,-2.2456571E-3,4.4414233E-3,-1.0273156E-2,-1.4929674E-2,-6.577339E-3,2.9810881E-3,-2.2174437E-3,1.2346846E-2,4.19455E-3,-8.887222E-3,4.4158534E-3,-1.5682658E-2,-2.9493624E-3,-1.3025003E-2,-9.184222E-4,6.9959983E-3,-4.9842405E-3,-2.8336423E-3,9.538282E-3,2.9513158E-4,1.1129511E-2,9.335984E-3,-2.6255678E-3,1.3161312E-2,3.7563827E-3,-7.7486797E-3,5.75263E-3,-1.2763655E-2,-5.1192185E-3,2.9313012E-3,-2.3327442E-3,-1.13004185E-2,4.54287E-3,1.057509E-2,1.9294897E-3,4.3503135E-3,-1.3254519E-2,1.0556111E-2,-1.6679247E-3,1.2421738E-3,1.6135009E-2,-5.114864E-3,1.6656313E-3,1.9018231E-3,7.863992E-3,-4.5172246E-3,9.101866E-3,-1.0140007E-2,3.2091497E-3],"categories":[],"categories_nodes":[],"categories_segments":[],"categories_sizes":[],"default_left":[0,0,0,0,0,0,0,0,0,0,0,0,0,0,0,0,0,0,0,0,0,0,0,0,0,0,0,0,0,0,0,0,0,0,0,0,0,0,0,0,0,0,0,0,0,0,0,0,0,0,0,0,0,0,0,0,0,0,0,0,0,0,0,0,0,0,0,0,0,0,0,0,0,0,0,0,0,0,0,0,0,0,0,0,0,0,0,0,0,0,0,0,0,0,0,0,0,0,0,0,0,0,0,0,0,0,0,0,0,0,0,0,0,0,0,0,0],"id":12,"left_children":[1,3,5,7,9,11,13,15,17,19,21,23,25,27,29,31,33,35,-1,37,39,41,43,45,47,49,51,53,55,57,59,61,63,65,67,69,71,-1,-1,73,75,77,79,81,83,85,87,89,91,93,95,97,99,101,103,105,107,109,111,113,115,-1,-1,-1,-1,-1,-1,-1,-1,-1,-1,-1,-1,-1,-1,-1,-1,-1,-1,-1,-1,-1,-1,-1,-1,-1,-1,-1,-1,-1,-1,-1,-1,-1,-1,-1,-1,-1,-1,-1,-1,-1,-1,-1,-1,-1,-1,-1,-1,-1,-1,-1,-1,-1,-1,-1,-1],"loss_changes":[1.4214122E2,5.3954277E1,4.381105E1,4.3006775E1,4.4504192E1,3.6690228E1,3.0463005E1,1.7693836E1,4.060913E0,1.4363168E1,5.3378525E0,1.6008701E1,8.307775E0,8.541199E0,1.8024563E1,1.7210377E1,1.2957909E1,2.1033478E0,0E0,2.3969688E0,1.0268061E1,2.1632538E0,5.0559816E0,6.4562263E0,9.404378E0,2.6202621E0,8.752533E0,3.5024343E0,4.599121E0,1.1972702E1,9.037052E0,7.775442E0,4.7713494E0,4.7673645E0,8.224497E0,3.3817525E0,9.6943665E-1,0E0,0E0,1.0433809E1,3.413332E0,2.6807141E0,2.0237045E0,2.4836016E0,7.131826E0,3.3328216E0,5.9007072E0,8.577117E0,2.1910439E0,2.3802834E0,7.4998665E-1,7.074078E0,8.121109E0,3.3755922E-1,4.6328115E0,4.864151E0,3.2896652E0,8.030129E0,4.241027E0,7.190914E0,5.540644E0,0E0,0E0,0E0,0E0,0E0,0E0,0E0,0E0,0E0,0E0,0E0,0E0,0E0,0E0,0E0,0E0,0E0,0E0,0E0,0E0,0E0,0E0,0E0,0E0,0E0,0E0,0E0,0E0,0E0,0E0,0E0,0E0,0E0,0E0,0E0,0E0,0E0,0E0,0E0,0E0,0E0,0E0,0E0,0E0,0E0,0E0,0E0,0E0,0E0,0E0,0E0,0E0,0E0,0E0,0E0,0E0],"parents":[2147483647,0,0,1,1,2,2,3,3,4,4,5,5,6,6,7,7,8,8,9,9,10,10,11,11,12,12,13,13,14,14,15,15,16,16,17,17,19,19,20,20,21,21,22,22,23,23,24,24,25,25,26,26,27,27,28,28,29,29,30,30,31,31,32,32,33,33,34,34,35,35,36,36,39,39,40,40,41,41,42,42,43,43,44,44,45,45,46,46,47,47,48,48,49,49,50,50,51,51,52,52,53,53,54,54,55,55,56,56,57,57,58,58,59,59,60,60],"right_children":[2,4,6,8,10,12,14,16,18,20,22,24,26,28,30,32,34,36,-1,38,40,42,44,46,48,50,52,54,56,58,60,62,64,66,68,70,72,-1,-1,74,76,78,80,82,84,86,88,90,92,94,96,98,100,102,104,106,108,110,112,114,116,-1,-1,-1,-1,-1,-1,-1,-1,-1,-1,-1,-1,-1,-1,-1,-1,-1,-1,-1,-1,-1,-1,-1,-1,-1,-1,-1,-1,-1,-1,-1,-1,-1,-1,-1,-1,-1,-1,-1,-1,-1,-1,-1,-1,-1,-1,-1,-1,-1,-1,-1,-1,-1,-1,-1,-1],"split_conditions":[1E-2,-4E-2,3.2E-1,1.22E0,1.72E0,-9.6E-1,-6.2E-1,-7.7E-1,-9E-2,-1.22E0,-2.4E-1,0E0,-1.76E0,-1.66E0,2E-2,-1.19E0,1.5E-1,-2.88E0,4.4848103E-4,1E-1,1.89E0,2.16E0,-1.97E0,1E-2,2.31E0,-2.67E0,1.26E0,-1.94E0,1.33E0,1.68E0,1.65E0,1E0,-1E0,1.3E-1,-2.67E0,0E0,4E-1,1.2526828E-3,1.2987389E-2,1E0,5E-1,1.95E0,1E0,6E0,-1.47E0,1.2E-1,-2.18E0,-2.76E0,2E-2,0E0,1.39E0,-2E0,1.7E-1,1E0,1E0,7E0,-3.7E-1,-8.1E-1,1E0,-2.31E0,3E-2,-5.687444E-3,3.258937E-3,-2.2296624E-3,4.988186E-3,-9.282774E-3,2.7477236E-3,-1.1760237E-2,-2.2456571E-3,4.4414233E-3,-1.0273156E-2,-1.4929674E-2,-6.577339E-3,2.9810881E-3,-2.2174437E-3,1.2346846E-2,4.19455E-3,-8.887222E-3,4.4158534E-3,-1.5682658E-2,-2.9493624E-3,-1.3025003E-2,-9.184222E-4,6.9959983E-3,-4.9842405E-3,-2.8336423E-3,9.538282E-3,2.9513158E-4,1.1129511E-2,9.335984E-3,-2.6255678E-3,1.3161312E-2,3.7563827E-3,-7.7486797E-3,5.75263E-3,-1.2763655E-2,-5.1192185E-3,2.9313012E-3,-2.3327442E-3,-1.13004185E-2,4.54287E-3,1.057509E-2,1.9294897E-3,4.3503135E-3,-1.3254519E-2,1.0556111E-2,-1.6679247E-3,1.2421738E-3,1.6135009E-2,-5.114864E-3,1.6656313E-3,1.9018231E-3,7.863992E-3,-4.5172246E-3,9.101866E-3,-1.0140007E-2,3.2091497E-3],"split_indices":[5,4,4,6,6,6,6,6,4,6,9,3,4,8,9,4,8,8,0,4,4,6,8,8,8,4,6,6,4,4,6,1,0,7,4,3,9,0,0,3,6,6,1,3,8,7,4,6,7,0,8,3,9,0,3,3,9,8,0,8,5,0,0,0,0,0,0,0,0,0,0,0,0,0,0,0,0,0,0,0,0,0,0,0,0,0,0,0,0,0,0,0,0,0,0,0,0,0,0,0,0,0,0,0,0,0,0,0,0,0,0,0,0,0,0,0,0],"split_type":[0,0,0,0,0,0,0,0,0,0,0,0,0,0,0,0,0,0,0,0,0,0,0,0,0,0,0,0,0,0,0,0,0,0,0,0,0,0,0,0,0,0,0,0,0,0,0,0,0,0,0,0,0,0,0,0,0,0,0,0,0,0,0,0,0,0,0,0,0,0,0,0,0,0,0,0,0,0,0,0,0,0,0,0,0,0,0,0,0,0,0,0,0,0,0,0,0,0,0,0,0,0,0,0,0,0,0,0,0,0,0,0,0,0,0,0,0],"sum_hessian":[1.1955427E3,6.2226575E2,5.732769E2,3.6572375E2,2.56542E2,2.7376526E2,2.9951163E2,3.019629E2,6.376089E1,1.9239926E2,6.414274E1,1.1608307E2,1.576822E2,8.2975235E1,2.165364E2,1.2267657E2,1.7928632E2,6.1763718E1,1.9971719E0,1.5230333E1,1.7716893E2,1.7708063E1,4.6434673E1,5.7379444E1,5.870363E1,1.623969E1,1.414425E2,6.74296E0,7.623228E1,1.1791649E2,9.861991E1,7.494469E1,4.7731884E1,9.484514E1,8.444117E1,6.226012E0,5.553771E1,2.2480881E0,1.2982245E1,1.539365E2,2.3232428E1,5.240595E0,1.2467468E1,1.0971252E1,3.546342E1,8.990452E0,4.8388992E1,4.746956E1,1.1234068E1,3.2475038E0,1.29921875E1,1.23452126E2,1.7990389E1,2.4953654E0,4.247595E0,4.5864536E1,3.0367743E1,6.920813E1,4.870836E1,8.263111E1,1.5988805E1,6.420118E1,1.0743507E1,1.1495568E1,3.6236317E1,9.184726E1,2.9978762E0,9.486431E0,7.495474E1,1.49721E0,4.728802E0,5.1798904E1,3.7388034E0,8.446991E1,6.946659E1,8.740684E0,1.4491744E1,3.7433987E0,1.4971962E0,1.0471197E1,1.9962716E0,8.726243E0,2.24501E0,4.9959884E0,3.0467432E1,6.994015E0,1.9964365E0,5.7437177E0,4.264527E1,5.988065E0,4.1481495E1,5.242377E0,5.991691E0,1.4988738E0,1.7486298E0,9.243415E0,3.7487726E0,3.4730778E1,8.8721344E1,1.4491712E1,3.4986765E0,1.2467875E0,1.2485778E0,2.2480674E0,1.9995272E0,4.261964E1,3.2448938E0,1.7449768E0,2.8622766E1,2.998707E1,3.922106E1,2.3232603E1,2.5475756E1,3.4990463E0,7.9132065E1,2.9982324E0,1.2990572E1],"tree_param":{"num_deleted":"0","num_feature":"12","num_nodes":"117","size_leaf_vector":"1"}},{"base_weights":[8.702486E-3,-3.0797946E-1,3.2222855E-1,1.778106E-1,-5.6247187E-1,4.776655E-1,-4.914815E-1,5.9679425E-1,-1.2125502E-1,-4.3756634E-1,-1.4021406E0,1.0924993E0,3.6828887E-1,-1.2664372E0,-2.6510394E-1,-3.4289896E-1,6.910337E-1,3.91445E-1,-3.840018E-1,-7.956934E-1,-2.4676126E-1,3.5576857E-4,-1.4470484E0,6.4287055E-1,1.287087E0,5.246503E-1,-3.8659327E-2,-1.3241074E0,-1.7843004E-3,-4.6837363E-1,3.745737E-1,1.7868637E-1,-1.1387944E-2,2.6320294E-1,9.9188596E-1,1.0926674E-1,8.3438975E-1,-4.979201E-1,3.428293E-1,-6.1593926E-1,-1.1803998E0,-4.8561814E-1,1.1170904E-1,-9.955538E-1,-1.5517391E0,1.9407792E-1,1.0946792E0,1.366506E0,7.138741E-2,4.3588096E-1,1.0778791E0,-1.0293376E-1,1.5524615E-2,-1.3886081E0,-1.8456053E-3,-8.626161E-1,-1.7428891E-1,1.2833526E0,3.7163447E-3,-4.256545E-3,1.1946305E-2,-3.3701041E-3,5.210356E-3,1.1856647E-2,5.5746404E-3,4.1698366E-3,-2.4238597E-3,6.75633E-4,1.1059946E-2,-8.740756E-4,-7.4971756E-3,-2.8121497E-3,7.474621E-3,-1.1783206E-2,-4.61457E-3,-7.005055E-3,-1.3914752E-2,-6.9489675E-3,-2.3454821E-3,-4.7257362E-4,5.2582505E-3,2.459587E-3,-1.2315409E-2,-1.642812E-2,-1.0042562E-2,4.732795E-3,-4.847132E-3,1.3758858E-2,9.181478E-4,6.7392266E-3,1.45211965E-2,-5.8211256E-3,7.6199365E-3,-7.751164E-4,5.651113E-3,-3.1368756E-3,1.1727435E-2,-3.5559568E-3,3.0202742E-3,-1.4832543E-2,-6.0176835E-3,6.6244635E-3,-9.720746E-3,8.729947E-3,-2.825937E-3,2.3732998E-3,1.5350607E-2,-1.2464155E-2,2.7317568E-3],"categories":[],"categories_nodes":[],"categories_segments":[],"categories_sizes":[],"default_left":[0,0,0,0,0,0,0,0,0,0,0,0,0,0,0,0,0,0,0,0,0,0,0,0,0,0,0,0,0,0,0,0,0,0,0,0,0,0,0,0,0,0,0,0,0,0,0,0,0,0,0,0,0,0,0,0,0,0,0,0,0,0,0,0,0,0,0,0,0,0,0,0,0,0,0,0,0,0,0,0,0,0,0,0,0,0,0,0,0,0,0,0,0,0,0,0,0,0,0,0,0,0,0,0,0,0,0,0,0],"id":13,"left_children":[1,3,5,7,9,11,13,15,17,19,21,23,25,27,29,31,33,35,37,39,41,-1,43,45,47,49,51,53,-1,55,57,59,-1,61,63,65,67,69,71,73,75,77,79,81,83,85,87,89,91,93,95,97,-1,99,-1,101,103,105,107,-1,-1,-1,-1,-1,-1,-1,-1,-1,-1,-1,-1,-1,-1,-1,-1,-1,-1,-1,-1,-1,-1,-1,-1,-1,-1,-1,-1,-1,-1,-1,-1,-1,-1,-1,-1,-1,-1,-1,-1,-1,-1,-1,-1,-1,-1,-1,-1,-1,-1],"loss_changes":[1.19024796E2,7.383336E1,7.6424095E1,2.5858597E1,4.045865E1,3.364377E1,1.6699766E1,7.842148E0,1.6438156E1,2.31977E1,3.296341E0,5.8179016E0,2.746563E1,1.1245956E0,1.011174E1,3.7304142E0,9.828018E0,5.0913296E0,6.8316345E0,7.4710693E0,1.9302761E1,0E0,7.5988007E-1,4.8445663E0,4.924324E0,1.4835945E1,1.2499063E1,1.24617E0,0E0,6.624552E0,6.393019E0,4.190424E0,0E0,5.394484E0,3.1827927E0,2.9663367E0,3.2544603E0,7.165354E0,3.11214E0,6.6575184E0,2.7388802E0,6.9355392E0,5.996152E0,3.8092804E0,2.345047E-1,2.8309774E0,3.3177967E0,1.9131088E0,2.3592389E0,1.7973763E1,5.967087E0,1.2069304E1,0E0,5.3673553E-1,0E0,4.7692337E0,4.1850333E0,1.083437E0,5.219684E0,0E0,0E0,0E0,0E0,0E0,0E0,0E0,0E0,0E0,0E0,0E0,0E0,0E0,0E0,0E0,0E0,0E0,0E0,0E0,0E0,0E0,0E0,0E0,0E0,0E0,0E0,0E0,0E0,0E0,0E0,0E0,0E0,0E0,0E0,0E0,0E0,0E0,0E0,0E0,0E0,0E0,0E0,0E0,0E0,0E0,0E0,0E0,0E0,0E0,0E0],"parents":[2147483647,0,0,1,1,2,2,3,3,4,4,5,5,6,6,7,7,8,8,9,9,10,10,11,11,12,12,13,13,14,14,15,15,16,16,17,17,18,18,19,19,20,20,22,22,23,23,24,24,25,25,26,26,27,27,29,29,30,30,31,31,33,33,34,34,35,35,36,36,37,37,38,38,39,39,40,40,41,41,42,42,43,43,44,44,45,45,46,46,47,47,48,48,49,49,50,50,51,51,53,53,55,55,56,56,57,57,58,58],"right_children":[2,4,6,8,10,12,14,16,18,20,22,24,26,28,30,32,34,36,38,40,42,-1,44,46,48,50,52,54,-1,56,58,60,-1,62,64,66,68,70,72,74,76,78,80,82,84,86,88,90,92,94,96,98,-1,100,-1,102,104,106,108,-1,-1,-1,-1,-1,-1,-1,-1,-1,-1,-1,-1,-1,-1,-1,-1,-1,-1,-1,-1,-1,-1,-1,-1,-1,-1,-1,-1,-1,-1,-1,-1,-1,-1,-1,-1,-1,-1,-1,-1,-1,-1,-1,-1,-1,-1,-1,-1,-1,-1],"split_conditions":[-2E-2,-1E0,1.84E0,0E0,1.59E0,-1.24E0,-2.18E0,-1.01E0,-2.07E0,-1.29E0,-9E0,-1.3E-1,3E0,5E-1,2E0,-1.7E-1,-1.41E0,-1.27E0,2.25E0,4E0,3.1E-1,3.5576857E-4,1.78E0,1E0,7E0,2.36E0,8E0,8E-2,-1.7843004E-3,-4E-2,9E-1,-7.5E-1,-1.1387944E-2,1E-1,2E0,7.3E-1,-1E0,0E0,2E-1,-3E-1,-1.2E-1,1E0,-3.4E-1,-3.9E-1,7E0,3E0,-1.48E0,-5E-1,1E0,-1.37E0,-9E-2,6E-2,1.5524615E-2,1E-1,-1.8456053E-3,-9E0,2.8E-1,-1.5E-1,-1.1E0,-4.256545E-3,1.1946305E-2,-3.3701041E-3,5.210356E-3,1.1856647E-2,5.5746404E-3,4.1698366E-3,-2.4238597E-3,6.75633E-4,1.1059946E-2,-8.740756E-4,-7.4971756E-3,-2.8121497E-3,7.474621E-3,-1.1783206E-2,-4.61457E-3,-7.005055E-3,-1.3914752E-2,-6.9489675E-3,-2.3454821E-3,-4.7257362E-4,5.2582505E-3,2.459587E-3,-1.2315409E-2,-1.642812E-2,-1.0042562E-2,4.732795E-3,-4.847132E-3,1.3758858E-2,9.181478E-4,6.7392266E-3,1.45211965E-2,-5.8211256E-3,7.6199365E-3,-7.751164E-4,5.651113E-3,-3.1368756E-3,1.1727435E-2,-3.5559568E-3,3.0202742E-3,-1.4832543E-2,-6.0176835E-3,6.6244635E-3,-9.720746E-3,8.729947E-3,-2.825937E-3,2.3732998E-3,1.5350607E-2,-1.2464155E-2,2.7317568E-3],"split_indices":[4,6,6,3,6,6,8,8,6,4,3,8,3,11,2,9,4,4,8,3,8,0,6,4,3,4,2,9,0,7,4,4,0,11,2,8,2,7,11,11,9,2,4,9,3,2,6,11,0,8,7,7,0,11,0,3,4,9,11,0,0,0,0,0,0,0,0,0,0,0,0,0,0,0,0,0,0,0,0,0,0,0,0,0,0,0,0,0,0,0,0,0,0,0,0,0,0,0,0,0,0,0,0,0,0,0,0,0,0],"split_type":[0,0,0,0,0,0,0,0,0,0,0,0,0,0,0,0,0,0,0,0,0,0,0,0,0,0,0,0,0,0,0,0,0,0,0,0,0,0,0,0,0,0,0,0,0,0,0,0,0,0,0,0,0,0,0,0,0,0,0,0,0,0,0,0,0,0,0,0,0,0,0,0,0,0,0,0,0,0,0,0,0,0,0,0,0,0,0,0,0,0,0,0,0,0,0,0,0,0,0,0,0,0,0,0,0,0,0,0,0],"sum_hessian":[1.1967833E3,5.9540393E2,6.0137946E2,2.0479002E2,3.906139E2,5.0527374E2,9.610569E1,8.487987E1,1.19910164E2,3.4135632E2,4.9257587E1,7.495338E1,4.3032037E2,2.0688532E1,7.541716E1,7.496012E0,7.738386E1,4.0463528E1,7.944664E1,1.1755119E2,2.2380511E2,1.4982753E0,4.775931E1,2.3939878E1,5.10135E1,3.1066467E2,1.19655685E2,1.944105E1,1.247483E0,5.7434162E1,1.7982996E1,4.996848E0,2.4991643E0,3.272364E1,4.4660213E1,2.5478874E1,1.4984652E1,6.895419E1,1.0492442E1,8.188942E1,3.5661777E1,1.3409793E2,8.9707184E1,1.0967919E1,3.6791393E1,1.2727198E1,1.121268E1,4.7768818E1,3.2446826E0,2.6924963E2,4.141505E1,1.15908775E2,3.746908E0,1.8192741E1,1.2483088E0,2.3712526E1,3.3721634E1,4.4986467E0,1.348435E1,3.4974144E0,1.4994336E0,9.74079E0,2.2982851E1,2.9688173E1,1.4972041E1,1.34892235E1,1.1989651E1,4.2458973E0,1.0738754E1,2.6727207E1,4.2226986E1,4.2472067E0,6.2452354E0,1.6218737E1,6.5670685E1,1.2213134E1,2.3448643E1,7.217169E1,6.192624E1,6.546361E1,2.424358E1,1.7450532E0,9.222866E0,2.982876E1,6.9626327E0,9.2324505E0,